svm_type epsilon_svr
kernel_type rbf
gamma 1
nr_class 2
total_sv 5834
rho -294.417
SV
6145.358517776184 1:3.324459 2:3.923871 3:0.092507 4:3.821484 5:1.340413 6:6.868126 7:2.632955 8:1 
8530.359395068983 1:3.324459 2:3.923871 3:0.092507 4:3.821484 5:1.340413 6:6.868126 7:2.632955 8:3 
-10813.08808629626 1:3.324459 2:3.923871 3:0.092507 4:3.821484 5:1.340413 6:6.868126 7:2.632955 8:5 
-16758.50662555118 1:3.324459 2:3.923871 3:0.092507 4:3.821484 5:1.340413 6:6.868126 7:2.632955 8:7 
-17301.46713328959 1:3.324459 2:3.923871 3:0.092507 4:3.821484 5:1.340413 6:6.868126 7:2.632955 8:9 
-24182.5152234555 1:3.324459 2:3.923871 3:0.092507 4:3.821484 5:1.340413 6:6.868126 7:2.632955 8:11 
-26843.12880937208 1:3.324459 2:3.923871 3:0.092507 4:3.821484 5:1.340413 6:6.868126 7:2.632955 8:13 
6693.901092095616 1:3.324459 2:3.923871 3:0.092507 4:3.821484 5:1.340413 6:6.868126 7:2.632955 8:15 
-30000 1:3.324459 2:3.923871 3:0.092507 4:3.821484 5:1.340413 6:6.868126 7:2.632955 8:17 
-30000 1:3.324459 2:3.923871 3:0.092507 4:3.821484 5:1.340413 6:6.868126 7:2.632955 8:19 
-30000 1:3.324459 2:3.923871 3:0.092507 4:3.821484 5:1.340413 6:6.868126 7:2.632955 8:21 
-2629.742828071174 1:3.324459 2:3.923871 3:0.092507 4:3.821484 5:1.340413 6:6.868126 7:2.632955 8:23 
10278.74380180492 1:3.324459 2:3.923871 3:0.092507 4:3.821484 5:1.340413 6:6.868126 7:2.632955 8:25 
23572.27078016266 1:3.324459 2:3.923871 3:0.092507 4:3.821484 5:1.340413 6:6.868126 7:2.632955 8:27 
30000 1:3.324459 2:3.923871 3:0.092507 4:3.821484 5:1.340413 6:6.868126 7:2.632955 8:29 
30000 1:3.324459 2:3.923871 3:0.092507 4:3.821484 5:1.340413 6:6.868126 7:2.632955 8:31 
19301.63730973142 1:3.324459 2:3.923871 3:0.092507 4:3.821484 5:1.340413 6:6.868126 7:2.632955 8:33 
9041.532772303106 1:3.324459 2:3.923871 3:0.092507 4:3.821484 5:1.340413 6:6.868126 7:2.632955 8:35 
2731.685351768909 1:3.324459 2:3.923871 3:0.092507 4:3.821484 5:1.340413 6:6.868126 7:2.632955 8:37 
2274.589187299677 1:3.324459 2:3.923871 3:0.092507 4:3.821484 5:1.340413 6:6.868126 7:2.632955 8:41 
3480.474741868788 1:3.324459 2:3.923871 3:0.092507 4:3.821484 5:1.340413 6:6.868126 7:2.632955 8:43 
707.3443007666772 1:3.324459 2:3.923871 3:0.092507 4:3.821484 5:1.340413 6:6.868126 7:2.632955 8:45 
11615.68182650115 1:3.324459 2:3.923871 3:0.092507 4:3.821484 5:1.340413 6:6.868126 7:2.632955 8:47 
9543.277095581723 1:3.324459 2:3.923871 3:0.092507 4:3.821484 5:1.340413 6:6.868126 7:2.632955 8:49 
1129.228176859995 1:3.290411 2:4.515211 3:-0.187239 4:3.825523 5:1.156987 6:6.932022 7:2.730465 8:1 
549.1884193672551 1:3.290411 2:4.515211 3:-0.187239 4:3.825523 5:1.156987 6:6.932022 7:2.730465 8:3 
8955.783257362855 1:3.290411 2:4.515211 3:-0.187239 4:3.825523 5:1.156987 6:6.932022 7:2.730465 8:5 
24554.43370205267 1:3.290411 2:4.515211 3:-0.187239 4:3.825523 5:1.156987 6:6.932022 7:2.730465 8:7 
24007.10749295764 1:3.290411 2:4.515211 3:-0.187239 4:3.825523 5:1.156987 6:6.932022 7:2.730465 8:9 
22768.91578424726 1:3.290411 2:4.515211 3:-0.187239 4:3.825523 5:1.156987 6:6.932022 7:2.730465 8:11 
24796.35060357612 1:3.290411 2:4.515211 3:-0.187239 4:3.825523 5:1.156987 6:6.932022 7:2.730465 8:13 
5427.173708174158 1:3.290411 2:4.515211 3:-0.187239 4:3.825523 5:1.156987 6:6.932022 7:2.730465 8:15 
30000 1:3.290411 2:4.515211 3:-0.187239 4:3.825523 5:1.156987 6:6.932022 7:2.730465 8:17 
24448.29873060425 1:3.290411 2:4.515211 3:-0.187239 4:3.825523 5:1.156987 6:6.932022 7:2.730465 8:19 
12738.87921901985 1:3.290411 2:4.515211 3:-0.187239 4:3.825523 5:1.156987 6:6.932022 7:2.730465 8:21 
9366.135525594562 1:3.290411 2:4.515211 3:-0.187239 4:3.825523 5:1.156987 6:6.932022 7:2.730465 8:23 
-7874.569817845121 1:3.290411 2:4.515211 3:-0.187239 4:3.825523 5:1.156987 6:6.932022 7:2.730465 8:27 
-18495.93518132496 1:3.290411 2:4.515211 3:-0.187239 4:3.825523 5:1.156987 6:6.932022 7:2.730465 8:29 
-21549.60526187968 1:3.290411 2:4.515211 3:-0.187239 4:3.825523 5:1.156987 6:6.932022 7:2.730465 8:31 
-25347.6474265933 1:3.290411 2:4.515211 3:-0.187239 4:3.825523 5:1.156987 6:6.932022 7:2.730465 8:33 
-30000 1:3.290411 2:4.515211 3:-0.187239 4:3.825523 5:1.156987 6:6.932022 7:2.730465 8:35 
-30000 1:3.290411 2:4.515211 3:-0.187239 4:3.825523 5:1.156987 6:6.932022 7:2.730465 8:37 
-30000 1:3.290411 2:4.515211 3:-0.187239 4:3.825523 5:1.156987 6:6.932022 7:2.730465 8:39 
-30000 1:3.290411 2:4.515211 3:-0.187239 4:3.825523 5:1.156987 6:6.932022 7:2.730465 8:41 
-30000 1:3.290411 2:4.515211 3:-0.187239 4:3.825523 5:1.156987 6:6.932022 7:2.730465 8:43 
-30000 1:3.290411 2:4.515211 3:-0.187239 4:3.825523 5:1.156987 6:6.932022 7:2.730465 8:45 
-30000 1:3.290411 2:4.515211 3:-0.187239 4:3.825523 5:1.156987 6:6.932022 7:2.730465 8:47 
-30000 1:3.290411 2:4.515211 3:-0.187239 4:3.825523 5:1.156987 6:6.932022 7:2.730465 8:49 
-5494.52438063262 1:3.271787 2:4.413482 3:0.23939 4:3.987677 5:1.420846 6:6.921965 7:2.768787 8:1 
-4866.055462487114 1:3.271787 2:4.413482 3:0.23939 4:3.987677 5:1.420846 6:6.921965 7:2.768787 8:3 
-6894.511031028815 1:3.271787 2:4.413482 3:0.23939 4:3.987677 5:1.420846 6:6.921965 7:2.768787 8:5 
-1737.552865107355 1:3.271787 2:4.413482 3:0.23939 4:3.987677 5:1.420846 6:6.921965 7:2.768787 8:7 
-2680.939442077509 1:3.271787 2:4.413482 3:0.23939 4:3.987677 5:1.420846 6:6.921965 7:2.768787 8:9 
-7448.465414965346 1:3.271787 2:4.413482 3:0.23939 4:3.987677 5:1.420846 6:6.921965 7:2.768787 8:11 
-14463.31266374266 1:3.271787 2:4.413482 3:0.23939 4:3.987677 5:1.420846 6:6.921965 7:2.768787 8:13 
7043.783061361301 1:3.271787 2:4.413482 3:0.23939 4:3.987677 5:1.420846 6:6.921965 7:2.768787 8:15 
-3761.612487416409 1:3.271787 2:4.413482 3:0.23939 4:3.987677 5:1.420846 6:6.921965 7:2.768787 8:17 
-7099.284376599466 1:3.271787 2:4.413482 3:0.23939 4:3.987677 5:1.420846 6:6.921965 7:2.768787 8:19 
-4158.048799992595 1:3.271787 2:4.413482 3:0.23939 4:3.987677 5:1.420846 6:6.921965 7:2.768787 8:21 
-2983.952509185597 1:3.271787 2:4.413482 3:0.23939 4:3.987677 5:1.420846 6:6.921965 7:2.768787 8:23 
308.5262087351099 1:3.271787 2:4.413482 3:0.23939 4:3.987677 5:1.420846 6:6.921965 7:2.768787 8:25 
3061.265207660801 1:3.271787 2:4.413482 3:0.23939 4:3.987677 5:1.420846 6:6.921965 7:2.768787 8:27 
4130.713178375949 1:3.271787 2:4.413482 3:0.23939 4:3.987677 5:1.420846 6:6.921965 7:2.768787 8:29 
904.9496063620117 1:3.271787 2:4.413482 3:0.23939 4:3.987677 5:1.420846 6:6.921965 7:2.768787 8:33 
1211.438965832757 1:3.271787 2:4.413482 3:0.23939 4:3.987677 5:1.420846 6:6.921965 7:2.768787 8:35 
4156.452504865949 1:3.271787 2:4.413482 3:0.23939 4:3.987677 5:1.420846 6:6.921965 7:2.768787 8:39 
16278.51784753488 1:3.271787 2:4.413482 3:0.23939 4:3.987677 5:1.420846 6:6.921965 7:2.768787 8:43 
19843.04680214476 1:3.271787 2:4.413482 3:0.23939 4:3.987677 5:1.420846 6:6.921965 7:2.768787 8:45 
23273.06994831357 1:3.271787 2:4.413482 3:0.23939 4:3.987677 5:1.420846 6:6.921965 7:2.768787 8:49 
-15312.75884388913 1:3.410055 2:3.771157 3:-0.019744 4:3.873076 5:1.355989 6:6.936812 7:2.622941 8:1 
-14075.09962212234 1:3.410055 2:3.771157 3:-0.019744 4:3.873076 5:1.355989 6:6.936812 7:2.622941 8:3 
13881.47603090486 1:3.410055 2:3.771157 3:-0.019744 4:3.873076 5:1.355989 6:6.936812 7:2.622941 8:5 
-13158.32301277111 1:3.410055 2:3.771157 3:-0.019744 4:3.873076 5:1.355989 6:6.936812 7:2.622941 8:7 
-21137.97585296113 1:3.410055 2:3.771157 3:-0.019744 4:3.873076 5:1.355989 6:6.936812 7:2.622941 8:9 
-16514.72748898244 1:3.410055 2:3.771157 3:-0.019744 4:3.873076 5:1.355989 6:6.936812 7:2.622941 8:11 
-17250.19799483151 1:3.410055 2:3.771157 3:-0.019744 4:3.873076 5:1.355989 6:6.936812 7:2.622941 8:13 
24377.84330083491 1:3.410055 2:3.771157 3:-0.019744 4:3.873076 5:1.355989 6:6.936812 7:2.622941 8:15 
-4426.63279145392 1:3.410055 2:3.771157 3:-0.019744 4:3.873076 5:1.355989 6:6.936812 7:2.622941 8:17 
22810.98570736856 1:3.410055 2:3.771157 3:-0.019744 4:3.873076 5:1.355989 6:6.936812 7:2.622941 8:19 
30000 1:3.410055 2:3.771157 3:-0.019744 4:3.873076 5:1.355989 6:6.936812 7:2.622941 8:21 
18121.26214729428 1:3.410055 2:3.771157 3:-0.019744 4:3.873076 5:1.355989 6:6.936812 7:2.622941 8:23 
8971.723675502044 1:3.410055 2:3.771157 3:-0.019744 4:3.873076 5:1.355989 6:6.936812 7:2.622941 8:25 
-360.6423750198027 1:3.410055 2:3.771157 3:-0.019744 4:3.873076 5:1.355989 6:6.936812 7:2.622941 8:27 
-21254.60533566331 1:3.410055 2:3.771157 3:-0.019744 4:3.873076 5:1.355989 6:6.936812 7:2.622941 8:29 
-30000 1:3.410055 2:3.771157 3:-0.019744 4:3.873076 5:1.355989 6:6.936812 7:2.622941 8:31 
-30000 1:3.410055 2:3.771157 3:-0.019744 4:3.873076 5:1.355989 6:6.936812 7:2.622941 8:33 
-30000 1:3.410055 2:3.771157 3:-0.019744 4:3.873076 5:1.355989 6:6.936812 7:2.622941 8:35 
-30000 1:3.410055 2:3.771157 3:-0.019744 4:3.873076 5:1.355989 6:6.936812 7:2.622941 8:37 
-30000 1:3.410055 2:3.771157 3:-0.019744 4:3.873076 5:1.355989 6:6.936812 7:2.622941 8:39 
-30000 1:3.410055 2:3.771157 3:-0.019744 4:3.873076 5:1.355989 6:6.936812 7:2.622941 8:41 
-30000 1:3.410055 2:3.771157 3:-0.019744 4:3.873076 5:1.355989 6:6.936812 7:2.622941 8:43 
-30000 1:3.410055 2:3.771157 3:-0.019744 4:3.873076 5:1.355989 6:6.936812 7:2.622941 8:45 
-30000 1:3.410055 2:3.771157 3:-0.019744 4:3.873076 5:1.355989 6:6.936812 7:2.622941 8:47 
-30000 1:3.410055 2:3.771157 3:-0.019744 4:3.873076 5:1.355989 6:6.936812 7:2.622941 8:49 
2633.22030768852 1:3.277774 2:3.831799 3:-0.185186 4:3.950627 5:1.112541 6:6.941161 7:2.659156 8:1 
1372.025501065359 1:3.277774 2:3.831799 3:-0.185186 4:3.950627 5:1.112541 6:6.941161 7:2.659156 8:3 
3853.719640178218 1:3.277774 2:3.831799 3:-0.185186 4:3.950627 5:1.112541 6:6.941161 7:2.659156 8:5 
-8689.179315470581 1:3.277774 2:3.831799 3:-0.185186 4:3.950627 5:1.112541 6:6.941161 7:2.659156 8:7 
-12936.84877195762 1:3.277774 2:3.831799 3:-0.185186 4:3.950627 5:1.112541 6:6.941161 7:2.659156 8:9 
-12737.92477180289 1:3.277774 2:3.831799 3:-0.185186 4:3.950627 5:1.112541 6:6.941161 7:2.659156 8:11 
-13395.03652055406 1:3.277774 2:3.831799 3:-0.185186 4:3.950627 5:1.112541 6:6.941161 7:2.659156 8:13 
-9017.345328235073 1:3.277774 2:3.831799 3:-0.185186 4:3.950627 5:1.112541 6:6.941161 7:2.659156 8:15 
-3509.739915809961 1:3.277774 2:3.831799 3:-0.185186 4:3.950627 5:1.112541 6:6.941161 7:2.659156 8:19 
-2238.154058630876 1:3.277774 2:3.831799 3:-0.185186 4:3.950627 5:1.112541 6:6.941161 7:2.659156 8:21 
-3689.482212764111 1:3.277774 2:3.831799 3:-0.185186 4:3.950627 5:1.112541 6:6.941161 7:2.659156 8:25 
1108.584066628835 1:3.277774 2:3.831799 3:-0.185186 4:3.950627 5:1.112541 6:6.941161 7:2.659156 8:27 
3130.647517082383 1:3.277774 2:3.831799 3:-0.185186 4:3.950627 5:1.112541 6:6.941161 7:2.659156 8:29 
-3916.531313748305 1:3.277774 2:3.831799 3:-0.185186 4:3.950627 5:1.112541 6:6.941161 7:2.659156 8:31 
-9967.317759104655 1:3.277774 2:3.831799 3:-0.185186 4:3.950627 5:1.112541 6:6.941161 7:2.659156 8:33 
-14017.38218319109 1:3.277774 2:3.831799 3:-0.185186 4:3.950627 5:1.112541 6:6.941161 7:2.659156 8:35 
-20709.81981824055 1:3.277774 2:3.831799 3:-0.185186 4:3.950627 5:1.112541 6:6.941161 7:2.659156 8:37 
-21237.27772727242 1:3.277774 2:3.831799 3:-0.185186 4:3.950627 5:1.112541 6:6.941161 7:2.659156 8:39 
-19737.02632296474 1:3.277774 2:3.831799 3:-0.185186 4:3.950627 5:1.112541 6:6.941161 7:2.659156 8:41 
-13334.69635821888 1:3.277774 2:3.831799 3:-0.185186 4:3.950627 5:1.112541 6:6.941161 7:2.659156 8:43 
-8894.272061171227 1:3.277774 2:3.831799 3:-0.185186 4:3.950627 5:1.112541 6:6.941161 7:2.659156 8:45 
-3337.964430041423 1:3.277774 2:3.831799 3:-0.185186 4:3.950627 5:1.112541 6:6.941161 7:2.659156 8:47 
-14697.76207531788 1:3.311694 2:4.253386 3:0.012656 4:3.883146 5:1.479947 6:6.928081 7:2.714155 8:1 
-10911.32978899673 1:3.311694 2:4.253386 3:0.012656 4:3.883146 5:1.479947 6:6.928081 7:2.714155 8:3 
-14923.57831884262 1:3.311694 2:4.253386 3:0.012656 4:3.883146 5:1.479947 6:6.928081 7:2.714155 8:5 
-30000 1:3.311694 2:4.253386 3:0.012656 4:3.883146 5:1.479947 6:6.928081 7:2.714155 8:7 
-30000 1:3.311694 2:4.253386 3:0.012656 4:3.883146 5:1.479947 6:6.928081 7:2.714155 8:9 
-30000 1:3.311694 2:4.253386 3:0.012656 4:3.883146 5:1.479947 6:6.928081 7:2.714155 8:11 
-30000 1:3.311694 2:4.253386 3:0.012656 4:3.883146 5:1.479947 6:6.928081 7:2.714155 8:13 
30000 1:3.311694 2:4.253386 3:0.012656 4:3.883146 5:1.479947 6:6.928081 7:2.714155 8:15 
-30000 1:3.311694 2:4.253386 3:0.012656 4:3.883146 5:1.479947 6:6.928081 7:2.714155 8:17 
-30000 1:3.311694 2:4.253386 3:0.012656 4:3.883146 5:1.479947 6:6.928081 7:2.714155 8:19 
-25094.85154616366 1:3.311694 2:4.253386 3:0.012656 4:3.883146 5:1.479947 6:6.928081 7:2.714155 8:21 
-5465.86546577049 1:3.311694 2:4.253386 3:0.012656 4:3.883146 5:1.479947 6:6.928081 7:2.714155 8:23 
9717.201743750966 1:3.311694 2:4.253386 3:0.012656 4:3.883146 5:1.479947 6:6.928081 7:2.714155 8:25 
27494.84073361911 1:3.311694 2:4.253386 3:0.012656 4:3.883146 5:1.479947 6:6.928081 7:2.714155 8:27 
30000 1:3.311694 2:4.253386 3:0.012656 4:3.883146 5:1.479947 6:6.928081 7:2.714155 8:29 
30000 1:3.311694 2:4.253386 3:0.012656 4:3.883146 5:1.479947 6:6.928081 7:2.714155 8:31 
30000 1:3.311694 2:4.253386 3:0.012656 4:3.883146 5:1.479947 6:6.928081 7:2.714155 8:33 
30000 1:3.311694 2:4.253386 3:0.012656 4:3.883146 5:1.479947 6:6.928081 7:2.714155 8:35 
30000 1:3.311694 2:4.253386 3:0.012656 4:3.883146 5:1.479947 6:6.928081 7:2.714155 8:37 
30000 1:3.311694 2:4.253386 3:0.012656 4:3.883146 5:1.479947 6:6.928081 7:2.714155 8:39 
30000 1:3.311694 2:4.253386 3:0.012656 4:3.883146 5:1.479947 6:6.928081 7:2.714155 8:41 
30000 1:3.311694 2:4.253386 3:0.012656 4:3.883146 5:1.479947 6:6.928081 7:2.714155 8:43 
30000 1:3.311694 2:4.253386 3:0.012656 4:3.883146 5:1.479947 6:6.928081 7:2.714155 8:45 
6851.097832432474 1:3.311694 2:4.253386 3:0.012656 4:3.883146 5:1.479947 6:6.928081 7:2.714155 8:47 
10562.99771475275 1:3.311694 2:4.253386 3:0.012656 4:3.883146 5:1.479947 6:6.928081 7:2.714155 8:49 
-1032.61608454122 1:3.394973 2:3.633108 3:0.215775 4:3.826747 5:1.506517 6:6.942998 7:2.681696 8:1 
-1329.915437031942 1:3.394973 2:3.633108 3:0.215775 4:3.826747 5:1.506517 6:6.942998 7:2.681696 8:3 
-15541.73613037342 1:3.394973 2:3.633108 3:0.215775 4:3.826747 5:1.506517 6:6.942998 7:2.681696 8:5 
6648.30739189776 1:3.394973 2:3.633108 3:0.215775 4:3.826747 5:1.506517 6:6.942998 7:2.681696 8:7 
30000 1:3.394973 2:3.633108 3:0.215775 4:3.826747 5:1.506517 6:6.942998 7:2.681696 8:15 
-18275.39955614976 1:3.394973 2:3.633108 3:0.215775 4:3.826747 5:1.506517 6:6.942998 7:2.681696 8:17 
-23303.31253039427 1:3.394973 2:3.633108 3:0.215775 4:3.826747 5:1.506517 6:6.942998 7:2.681696 8:19 
-19804.61968511514 1:3.394973 2:3.633108 3:0.215775 4:3.826747 5:1.506517 6:6.942998 7:2.681696 8:21 
-10210.84724855452 1:3.394973 2:3.633108 3:0.215775 4:3.826747 5:1.506517 6:6.942998 7:2.681696 8:23 
9107.571286536831 1:3.394973 2:3.633108 3:0.215775 4:3.826747 5:1.506517 6:6.942998 7:2.681696 8:27 
2799.587962785125 1:3.394973 2:3.633108 3:0.215775 4:3.826747 5:1.506517 6:6.942998 7:2.681696 8:29 
5797.344219247757 1:3.394973 2:3.633108 3:0.215775 4:3.826747 5:1.506517 6:6.942998 7:2.681696 8:31 
-354.4451847122901 1:3.394973 2:3.633108 3:0.215775 4:3.826747 5:1.506517 6:6.942998 7:2.681696 8:35 
-908.8969414705421 1:3.394973 2:3.633108 3:0.215775 4:3.826747 5:1.506517 6:6.942998 7:2.681696 8:37 
-3362.689664535971 1:3.394973 2:3.633108 3:0.215775 4:3.826747 5:1.506517 6:6.942998 7:2.681696 8:39 
-4287.485296332348 1:3.394973 2:3.633108 3:0.215775 4:3.826747 5:1.506517 6:6.942998 7:2.681696 8:41 
-568.6357066459891 1:3.394973 2:3.633108 3:0.215775 4:3.826747 5:1.506517 6:6.942998 7:2.681696 8:47 
-5392.305238891706 1:3.394973 2:3.633108 3:0.215775 4:3.826747 5:1.506517 6:6.942998 7:2.681696 8:49 
-4776.480623795341 1:3.471215 2:3.611311 3:-0.061929 4:3.82621 5:1.310273 6:6.877104 7:2.731132 8:1 
-4638.773284941894 1:3.471215 2:3.611311 3:-0.061929 4:3.82621 5:1.310273 6:6.877104 7:2.731132 8:3 
5362.682813951145 1:3.471215 2:3.611311 3:-0.061929 4:3.82621 5:1.310273 6:6.877104 7:2.731132 8:5 
2571.224627690704 1:3.471215 2:3.611311 3:-0.061929 4:3.82621 5:1.310273 6:6.877104 7:2.731132 8:7 
8626.77181154551 1:3.471215 2:3.611311 3:-0.061929 4:3.82621 5:1.310273 6:6.877104 7:2.731132 8:9 
19943.06537169696 1:3.471215 2:3.611311 3:-0.061929 4:3.82621 5:1.310273 6:6.877104 7:2.731132 8:11 
19630.26984762381 1:3.471215 2:3.611311 3:-0.061929 4:3.82621 5:1.310273 6:6.877104 7:2.731132 8:13 
30000 1:3.471215 2:3.611311 3:-0.061929 4:3.82621 5:1.310273 6:6.877104 7:2.731132 8:15 
27051.12752178935 1:3.471215 2:3.611311 3:-0.061929 4:3.82621 5:1.310273 6:6.877104 7:2.731132 8:17 
30000 1:3.471215 2:3.611311 3:-0.061929 4:3.82621 5:1.310273 6:6.877104 7:2.731132 8:19 
30000 1:3.471215 2:3.611311 3:-0.061929 4:3.82621 5:1.310273 6:6.877104 7:2.731132 8:21 
14429.4272328418 1:3.471215 2:3.611311 3:-0.061929 4:3.82621 5:1.310273 6:6.877104 7:2.731132 8:23 
10477.1128029293 1:3.471215 2:3.611311 3:-0.061929 4:3.82621 5:1.310273 6:6.877104 7:2.731132 8:25 
896.6925901466695 1:3.471215 2:3.611311 3:-0.061929 4:3.82621 5:1.310273 6:6.877104 7:2.731132 8:27 
-7091.406390142143 1:3.471215 2:3.611311 3:-0.061929 4:3.82621 5:1.310273 6:6.877104 7:2.731132 8:29 
-10780.52657701643 1:3.471215 2:3.611311 3:-0.061929 4:3.82621 5:1.310273 6:6.877104 7:2.731132 8:31 
-11242.2896286168 1:3.471215 2:3.611311 3:-0.061929 4:3.82621 5:1.310273 6:6.877104 7:2.731132 8:33 
-15739.57218286404 1:3.471215 2:3.611311 3:-0.061929 4:3.82621 5:1.310273 6:6.877104 7:2.731132 8:35 
-16517.0946531191 1:3.471215 2:3.611311 3:-0.061929 4:3.82621 5:1.310273 6:6.877104 7:2.731132 8:37 
-12441.12058250525 1:3.471215 2:3.611311 3:-0.061929 4:3.82621 5:1.310273 6:6.877104 7:2.731132 8:39 
-11142.06402541031 1:3.471215 2:3.611311 3:-0.061929 4:3.82621 5:1.310273 6:6.877104 7:2.731132 8:41 
-14057.83521122285 1:3.471215 2:3.611311 3:-0.061929 4:3.82621 5:1.310273 6:6.877104 7:2.731132 8:43 
-17109.56476000927 1:3.471215 2:3.611311 3:-0.061929 4:3.82621 5:1.310273 6:6.877104 7:2.731132 8:45 
-15216.43557251568 1:3.471215 2:3.611311 3:-0.061929 4:3.82621 5:1.310273 6:6.877104 7:2.731132 8:47 
-11893.300210688 1:3.471215 2:3.611311 3:-0.061929 4:3.82621 5:1.310273 6:6.877104 7:2.731132 8:49 
-7485.578567795988 1:3.341722 2:3.892785 3:0.105919 4:3.945175 5:1.278496 6:6.879568 7:2.734731 8:1 
-9624.570013124474 1:3.341722 2:3.892785 3:0.105919 4:3.945175 5:1.278496 6:6.879568 7:2.734731 8:3 
4205.664142075723 1:3.341722 2:3.892785 3:0.105919 4:3.945175 5:1.278496 6:6.879568 7:2.734731 8:5 
-636.2527468816492 1:3.341722 2:3.892785 3:0.105919 4:3.945175 5:1.278496 6:6.879568 7:2.734731 8:7 
15813.95760878441 1:3.341722 2:3.892785 3:0.105919 4:3.945175 5:1.278496 6:6.879568 7:2.734731 8:9 
30000 1:3.341722 2:3.892785 3:0.105919 4:3.945175 5:1.278496 6:6.879568 7:2.734731 8:11 
30000 1:3.341722 2:3.892785 3:0.105919 4:3.945175 5:1.278496 6:6.879568 7:2.734731 8:13 
-5465.284096724312 1:3.341722 2:3.892785 3:0.105919 4:3.945175 5:1.278496 6:6.879568 7:2.734731 8:15 
15061.66097041117 1:3.341722 2:3.892785 3:0.105919 4:3.945175 5:1.278496 6:6.879568 7:2.734731 8:17 
16579.8489397589 1:3.341722 2:3.892785 3:0.105919 4:3.945175 5:1.278496 6:6.879568 7:2.734731 8:19 
5506.573940283497 1:3.341722 2:3.892785 3:0.105919 4:3.945175 5:1.278496 6:6.879568 7:2.734731 8:21 
-16156.70250293915 1:3.341722 2:3.892785 3:0.105919 4:3.945175 5:1.278496 6:6.879568 7:2.734731 8:23 
-30000 1:3.341722 2:3.892785 3:0.105919 4:3.945175 5:1.278496 6:6.879568 7:2.734731 8:25 
-30000 1:3.341722 2:3.892785 3:0.105919 4:3.945175 5:1.278496 6:6.879568 7:2.734731 8:27 
-30000 1:3.341722 2:3.892785 3:0.105919 4:3.945175 5:1.278496 6:6.879568 7:2.734731 8:29 
-30000 1:3.341722 2:3.892785 3:0.105919 4:3.945175 5:1.278496 6:6.879568 7:2.734731 8:31 
-30000 1:3.341722 2:3.892785 3:0.105919 4:3.945175 5:1.278496 6:6.879568 7:2.734731 8:33 
-30000 1:3.341722 2:3.892785 3:0.105919 4:3.945175 5:1.278496 6:6.879568 7:2.734731 8:35 
-30000 1:3.341722 2:3.892785 3:0.105919 4:3.945175 5:1.278496 6:6.879568 7:2.734731 8:37 
-30000 1:3.341722 2:3.892785 3:0.105919 4:3.945175 5:1.278496 6:6.879568 7:2.734731 8:39 
-30000 1:3.341722 2:3.892785 3:0.105919 4:3.945175 5:1.278496 6:6.879568 7:2.734731 8:41 
-30000 1:3.341722 2:3.892785 3:0.105919 4:3.945175 5:1.278496 6:6.879568 7:2.734731 8:43 
-30000 1:3.341722 2:3.892785 3:0.105919 4:3.945175 5:1.278496 6:6.879568 7:2.734731 8:45 
-29563.82012900762 1:3.341722 2:3.892785 3:0.105919 4:3.945175 5:1.278496 6:6.879568 7:2.734731 8:47 
-10977.20366408886 1:3.341722 2:3.892785 3:0.105919 4:3.945175 5:1.278496 6:6.879568 7:2.734731 8:49 
8362.597723207617 1:3.532689 2:4.41947 3:0.093352 4:3.907643 5:1.301551 6:6.943789 7:2.687452 8:1 
8913.27357970364 1:3.532689 2:4.41947 3:0.093352 4:3.907643 5:1.301551 6:6.943789 7:2.687452 8:3 
-16637.84292422426 1:3.532689 2:4.41947 3:0.093352 4:3.907643 5:1.301551 6:6.943789 7:2.687452 8:5 
-6020.437994029402 1:3.532689 2:4.41947 3:0.093352 4:3.907643 5:1.301551 6:6.943789 7:2.687452 8:7 
2175.548169010854 1:3.532689 2:4.41947 3:0.093352 4:3.907643 5:1.301551 6:6.943789 7:2.687452 8:11 
30000 1:3.532689 2:4.41947 3:0.093352 4:3.907643 5:1.301551 6:6.943789 7:2.687452 8:15 
-813.9015855778928 1:3.532689 2:4.41947 3:0.093352 4:3.907643 5:1.301551 6:6.943789 7:2.687452 8:17 
27538.64113723619 1:3.532689 2:4.41947 3:0.093352 4:3.907643 5:1.301551 6:6.943789 7:2.687452 8:19 
30000 1:3.532689 2:4.41947 3:0.093352 4:3.907643 5:1.301551 6:6.943789 7:2.687452 8:21 
25084.27824894901 1:3.532689 2:4.41947 3:0.093352 4:3.907643 5:1.301551 6:6.943789 7:2.687452 8:23 
30000 1:3.532689 2:4.41947 3:0.093352 4:3.907643 5:1.301551 6:6.943789 7:2.687452 8:25 
30000 1:3.532689 2:4.41947 3:0.093352 4:3.907643 5:1.301551 6:6.943789 7:2.687452 8:27 
30000 1:3.532689 2:4.41947 3:0.093352 4:3.907643 5:1.301551 6:6.943789 7:2.687452 8:29 
30000 1:3.532689 2:4.41947 3:0.093352 4:3.907643 5:1.301551 6:6.943789 7:2.687452 8:31 
30000 1:3.532689 2:4.41947 3:0.093352 4:3.907643 5:1.301551 6:6.943789 7:2.687452 8:33 
30000 1:3.532689 2:4.41947 3:0.093352 4:3.907643 5:1.301551 6:6.943789 7:2.687452 8:35 
17441.36164546339 1:3.532689 2:4.41947 3:0.093352 4:3.907643 5:1.301551 6:6.943789 7:2.687452 8:37 
6703.658873579248 1:3.532689 2:4.41947 3:0.093352 4:3.907643 5:1.301551 6:6.943789 7:2.687452 8:39 
-8488.096751415027 1:3.532689 2:4.41947 3:0.093352 4:3.907643 5:1.301551 6:6.943789 7:2.687452 8:41 
-11498.33445927281 1:3.532689 2:4.41947 3:0.093352 4:3.907643 5:1.301551 6:6.943789 7:2.687452 8:43 
-15406.70307941973 1:3.532689 2:4.41947 3:0.093352 4:3.907643 5:1.301551 6:6.943789 7:2.687452 8:47 
-13508.10466702703 1:3.532689 2:4.41947 3:0.093352 4:3.907643 5:1.301551 6:6.943789 7:2.687452 8:49 
1928.918332837477 1:3.406459 2:4.404216 3:0.224846 4:3.963375 5:1.105222 6:6.91304 7:2.745281 8:1 
2433.633676265429 1:3.406459 2:4.404216 3:0.224846 4:3.963375 5:1.105222 6:6.91304 7:2.745281 8:3 
-6594.164320519824 1:3.406459 2:4.404216 3:0.224846 4:3.963375 5:1.105222 6:6.91304 7:2.745281 8:5 
-17081.23959501893 1:3.406459 2:4.404216 3:0.224846 4:3.963375 5:1.105222 6:6.91304 7:2.745281 8:7 
-18961.9358682316 1:3.406459 2:4.404216 3:0.224846 4:3.963375 5:1.105222 6:6.91304 7:2.745281 8:9 
-25312.38674364811 1:3.406459 2:4.404216 3:0.224846 4:3.963375 5:1.105222 6:6.91304 7:2.745281 8:11 
-30000 1:3.406459 2:4.404216 3:0.224846 4:3.963375 5:1.105222 6:6.91304 7:2.745281 8:13 
16718.09905812028 1:3.406459 2:4.404216 3:0.224846 4:3.963375 5:1.105222 6:6.91304 7:2.745281 8:15 
-30000 1:3.406459 2:4.404216 3:0.224846 4:3.963375 5:1.105222 6:6.91304 7:2.745281 8:17 
-26913.56774037371 1:3.406459 2:4.404216 3:0.224846 4:3.963375 5:1.105222 6:6.91304 7:2.745281 8:19 
-26343.07380039691 1:3.406459 2:4.404216 3:0.224846 4:3.963375 5:1.105222 6:6.91304 7:2.745281 8:21 
-14926.51116862593 1:3.406459 2:4.404216 3:0.224846 4:3.963375 5:1.105222 6:6.91304 7:2.745281 8:27 
-11222.22083169686 1:3.406459 2:4.404216 3:0.224846 4:3.963375 5:1.105222 6:6.91304 7:2.745281 8:29 
-8295.934557933433 1:3.406459 2:4.404216 3:0.224846 4:3.963375 5:1.105222 6:6.91304 7:2.745281 8:31 
-4842.059106010255 1:3.406459 2:4.404216 3:0.224846 4:3.963375 5:1.105222 6:6.91304 7:2.745281 8:35 
-8932.108763558132 1:3.406459 2:4.404216 3:0.224846 4:3.963375 5:1.105222 6:6.91304 7:2.745281 8:37 
-10597.17282476397 1:3.406459 2:4.404216 3:0.224846 4:3.963375 5:1.105222 6:6.91304 7:2.745281 8:39 
-9645.430706150961 1:3.406459 2:4.404216 3:0.224846 4:3.963375 5:1.105222 6:6.91304 7:2.745281 8:41 
-11214.12825769784 1:3.406459 2:4.404216 3:0.224846 4:3.963375 5:1.105222 6:6.91304 7:2.745281 8:43 
-12887.93412617742 1:3.406459 2:4.404216 3:0.224846 4:3.963375 5:1.105222 6:6.91304 7:2.745281 8:45 
-10673.7888498462 1:3.406459 2:4.404216 3:0.224846 4:3.963375 5:1.105222 6:6.91304 7:2.745281 8:47 
-7068.651030925485 1:3.406459 2:4.404216 3:0.224846 4:3.963375 5:1.105222 6:6.91304 7:2.745281 8:49 
-691.6536117450004 1:3.342908 2:3.812622 3:-0.172157 4:3.816322 5:1.38145 6:6.918225 7:2.668977 8:1 
-993.0372009559418 1:3.342908 2:3.812622 3:-0.172157 4:3.816322 5:1.38145 6:6.918225 7:2.668977 8:3 
-15640.59070279483 1:3.342908 2:3.812622 3:-0.172157 4:3.816322 5:1.38145 6:6.918225 7:2.668977 8:5 
-30000 1:3.342908 2:3.812622 3:-0.172157 4:3.816322 5:1.38145 6:6.918225 7:2.668977 8:7 
-30000 1:3.342908 2:3.812622 3:-0.172157 4:3.816322 5:1.38145 6:6.918225 7:2.668977 8:9 
-30000 1:3.342908 2:3.812622 3:-0.172157 4:3.816322 5:1.38145 6:6.918225 7:2.668977 8:11 
-21061.93168958968 1:3.342908 2:3.812622 3:-0.172157 4:3.816322 5:1.38145 6:6.918225 7:2.668977 8:13 
-30000 1:3.342908 2:3.812622 3:-0.172157 4:3.816322 5:1.38145 6:6.918225 7:2.668977 8:15 
29459.45232894179 1:3.342908 2:3.812622 3:-0.172157 4:3.816322 5:1.38145 6:6.918225 7:2.668977 8:17 
30000 1:3.342908 2:3.812622 3:-0.172157 4:3.816322 5:1.38145 6:6.918225 7:2.668977 8:19 
30000 1:3.342908 2:3.812622 3:-0.172157 4:3.816322 5:1.38145 6:6.918225 7:2.668977 8:21 
30000 1:3.342908 2:3.812622 3:-0.172157 4:3.816322 5:1.38145 6:6.918225 7:2.668977 8:23 
30000 1:3.342908 2:3.812622 3:-0.172157 4:3.816322 5:1.38145 6:6.918225 7:2.668977 8:25 
30000 1:3.342908 2:3.812622 3:-0.172157 4:3.816322 5:1.38145 6:6.918225 7:2.668977 8:27 
23438.64426076923 1:3.342908 2:3.812622 3:-0.172157 4:3.816322 5:1.38145 6:6.918225 7:2.668977 8:29 
22610.73286612758 1:3.342908 2:3.812622 3:-0.172157 4:3.816322 5:1.38145 6:6.918225 7:2.668977 8:31 
-2258.013364691977 1:3.342908 2:3.812622 3:-0.172157 4:3.816322 5:1.38145 6:6.918225 7:2.668977 8:33 
-7633.298018765764 1:3.342908 2:3.812622 3:-0.172157 4:3.816322 5:1.38145 6:6.918225 7:2.668977 8:35 
-7368.808255680735 1:3.342908 2:3.812622 3:-0.172157 4:3.816322 5:1.38145 6:6.918225 7:2.668977 8:37 
-9653.417098002879 1:3.342908 2:3.812622 3:-0.172157 4:3.816322 5:1.38145 6:6.918225 7:2.668977 8:39 
-19634.00167919271 1:3.342908 2:3.812622 3:-0.172157 4:3.816322 5:1.38145 6:6.918225 7:2.668977 8:41 
-20903.75881423694 1:3.342908 2:3.812622 3:-0.172157 4:3.816322 5:1.38145 6:6.918225 7:2.668977 8:43 
-24179.48116592703 1:3.342908 2:3.812622 3:-0.172157 4:3.816322 5:1.38145 6:6.918225 7:2.668977 8:45 
-24811.49574320405 1:3.342908 2:3.812622 3:-0.172157 4:3.816322 5:1.38145 6:6.918225 7:2.668977 8:47 
-16751.3932226645 1:3.342908 2:3.812622 3:-0.172157 4:3.816322 5:1.38145 6:6.918225 7:2.668977 8:49 
-5715.872394250347 1:3.307311 2:4.391949 3:0.143642 4:3.827536 5:1.36994 6:6.908206 7:2.791745 8:1 
-5060.657225425929 1:3.307311 2:4.391949 3:0.143642 4:3.827536 5:1.36994 6:6.908206 7:2.791745 8:3 
-17781.95498912298 1:3.307311 2:4.391949 3:0.143642 4:3.827536 5:1.36994 6:6.908206 7:2.791745 8:5 
-5296.508764653398 1:3.307311 2:4.391949 3:0.143642 4:3.827536 5:1.36994 6:6.908206 7:2.791745 8:9 
-18065.68549936655 1:3.307311 2:4.391949 3:0.143642 4:3.827536 5:1.36994 6:6.908206 7:2.791745 8:11 
-20287.94101628877 1:3.307311 2:4.391949 3:0.143642 4:3.827536 5:1.36994 6:6.908206 7:2.791745 8:13 
-9719.88879725836 1:3.307311 2:4.391949 3:0.143642 4:3.827536 5:1.36994 6:6.908206 7:2.791745 8:15 
584.5716226437017 1:3.307311 2:4.391949 3:0.143642 4:3.827536 5:1.36994 6:6.908206 7:2.791745 8:17 
5879.911950104338 1:3.307311 2:4.391949 3:0.143642 4:3.827536 5:1.36994 6:6.908206 7:2.791745 8:19 
-1961.509837268651 1:3.307311 2:4.391949 3:0.143642 4:3.827536 5:1.36994 6:6.908206 7:2.791745 8:21 
-3309.809741502263 1:3.307311 2:4.391949 3:0.143642 4:3.827536 5:1.36994 6:6.908206 7:2.791745 8:23 
-11897.0993963267 1:3.307311 2:4.391949 3:0.143642 4:3.827536 5:1.36994 6:6.908206 7:2.791745 8:25 
-14983.15608166625 1:3.307311 2:4.391949 3:0.143642 4:3.827536 5:1.36994 6:6.908206 7:2.791745 8:27 
-19784.67725246961 1:3.307311 2:4.391949 3:0.143642 4:3.827536 5:1.36994 6:6.908206 7:2.791745 8:29 
-30000 1:3.307311 2:4.391949 3:0.143642 4:3.827536 5:1.36994 6:6.908206 7:2.791745 8:31 
-18911.7844604262 1:3.307311 2:4.391949 3:0.143642 4:3.827536 5:1.36994 6:6.908206 7:2.791745 8:33 
-11998.84670314514 1:3.307311 2:4.391949 3:0.143642 4:3.827536 5:1.36994 6:6.908206 7:2.791745 8:35 
-6135.591655547142 1:3.307311 2:4.391949 3:0.143642 4:3.827536 5:1.36994 6:6.908206 7:2.791745 8:37 
-4757.398014641394 1:3.307311 2:4.391949 3:0.143642 4:3.827536 5:1.36994 6:6.908206 7:2.791745 8:39 
-2909.346611381701 1:3.307311 2:4.391949 3:0.143642 4:3.827536 5:1.36994 6:6.908206 7:2.791745 8:41 
-3172.788421172379 1:3.307311 2:4.391949 3:0.143642 4:3.827536 5:1.36994 6:6.908206 7:2.791745 8:43 
-1699.221857719834 1:3.307311 2:4.391949 3:0.143642 4:3.827536 5:1.36994 6:6.908206 7:2.791745 8:45 
-1534.568484883209 1:3.307311 2:4.391949 3:0.143642 4:3.827536 5:1.36994 6:6.908206 7:2.791745 8:47 
1129.15275176594 1:3.307311 2:4.391949 3:0.143642 4:3.827536 5:1.36994 6:6.908206 7:2.791745 8:49 
-1139.888662541331 1:3.315597 2:4.347108 3:-0.186157 4:3.866666 5:1.277593 6:6.924184 7:2.714975 8:3 
-30000 1:3.315597 2:4.347108 3:-0.186157 4:3.866666 5:1.277593 6:6.924184 7:2.714975 8:5 
-30000 1:3.315597 2:4.347108 3:-0.186157 4:3.866666 5:1.277593 6:6.924184 7:2.714975 8:7 
-30000 1:3.315597 2:4.347108 3:-0.186157 4:3.866666 5:1.277593 6:6.924184 7:2.714975 8:9 
-30000 1:3.315597 2:4.347108 3:-0.186157 4:3.866666 5:1.277593 6:6.924184 7:2.714975 8:11 
-30000 1:3.315597 2:4.347108 3:-0.186157 4:3.866666 5:1.277593 6:6.924184 7:2.714975 8:13 
22160.21123306637 1:3.315597 2:4.347108 3:-0.186157 4:3.866666 5:1.277593 6:6.924184 7:2.714975 8:15 
-30000 1:3.315597 2:4.347108 3:-0.186157 4:3.866666 5:1.277593 6:6.924184 7:2.714975 8:17 
-30000 1:3.315597 2:4.347108 3:-0.186157 4:3.866666 5:1.277593 6:6.924184 7:2.714975 8:19 
-30000 1:3.315597 2:4.347108 3:-0.186157 4:3.866666 5:1.277593 6:6.924184 7:2.714975 8:21 
-30000 1:3.315597 2:4.347108 3:-0.186157 4:3.866666 5:1.277593 6:6.924184 7:2.714975 8:23 
-30000 1:3.315597 2:4.347108 3:-0.186157 4:3.866666 5:1.277593 6:6.924184 7:2.714975 8:25 
-30000 1:3.315597 2:4.347108 3:-0.186157 4:3.866666 5:1.277593 6:6.924184 7:2.714975 8:27 
-30000 1:3.315597 2:4.347108 3:-0.186157 4:3.866666 5:1.277593 6:6.924184 7:2.714975 8:29 
-30000 1:3.315597 2:4.347108 3:-0.186157 4:3.866666 5:1.277593 6:6.924184 7:2.714975 8:31 
-30000 1:3.315597 2:4.347108 3:-0.186157 4:3.866666 5:1.277593 6:6.924184 7:2.714975 8:33 
-30000 1:3.315597 2:4.347108 3:-0.186157 4:3.866666 5:1.277593 6:6.924184 7:2.714975 8:35 
-30000 1:3.315597 2:4.347108 3:-0.186157 4:3.866666 5:1.277593 6:6.924184 7:2.714975 8:37 
-30000 1:3.315597 2:4.347108 3:-0.186157 4:3.866666 5:1.277593 6:6.924184 7:2.714975 8:39 
-30000 1:3.315597 2:4.347108 3:-0.186157 4:3.866666 5:1.277593 6:6.924184 7:2.714975 8:41 
-30000 1:3.315597 2:4.347108 3:-0.186157 4:3.866666 5:1.277593 6:6.924184 7:2.714975 8:43 
-21109.63058976162 1:3.315597 2:4.347108 3:-0.186157 4:3.866666 5:1.277593 6:6.924184 7:2.714975 8:45 
-22721.48246609878 1:3.315597 2:4.347108 3:-0.186157 4:3.866666 5:1.277593 6:6.924184 7:2.714975 8:47 
-21051.34788965706 1:3.315597 2:4.347108 3:-0.186157 4:3.866666 5:1.277593 6:6.924184 7:2.714975 8:49 
11848.65962562245 1:3.420655 2:4.421716 3:-0.241004 4:3.894235 5:1.176301 6:6.86828 7:2.754441 8:5 
5880.758478031343 1:3.420655 2:4.421716 3:-0.241004 4:3.894235 5:1.176301 6:6.86828 7:2.754441 8:7 
-618.8353447388588 1:3.420655 2:4.421716 3:-0.241004 4:3.894235 5:1.176301 6:6.86828 7:2.754441 8:9 
-9787.411372226252 1:3.420655 2:4.421716 3:-0.241004 4:3.894235 5:1.176301 6:6.86828 7:2.754441 8:11 
-23543.3640531173 1:3.420655 2:4.421716 3:-0.241004 4:3.894235 5:1.176301 6:6.86828 7:2.754441 8:13 
-28599.00325599017 1:3.420655 2:4.421716 3:-0.241004 4:3.894235 5:1.176301 6:6.86828 7:2.754441 8:15 
-30000 1:3.420655 2:4.421716 3:-0.241004 4:3.894235 5:1.176301 6:6.86828 7:2.754441 8:17 
-30000 1:3.420655 2:4.421716 3:-0.241004 4:3.894235 5:1.176301 6:6.86828 7:2.754441 8:19 
-30000 1:3.420655 2:4.421716 3:-0.241004 4:3.894235 5:1.176301 6:6.86828 7:2.754441 8:21 
-29449.29801523179 1:3.420655 2:4.421716 3:-0.241004 4:3.894235 5:1.176301 6:6.86828 7:2.754441 8:23 
-3711.389171989063 1:3.420655 2:4.421716 3:-0.241004 4:3.894235 5:1.176301 6:6.86828 7:2.754441 8:25 
22609.25995761589 1:3.420655 2:4.421716 3:-0.241004 4:3.894235 5:1.176301 6:6.86828 7:2.754441 8:27 
30000 1:3.420655 2:4.421716 3:-0.241004 4:3.894235 5:1.176301 6:6.86828 7:2.754441 8:29 
30000 1:3.420655 2:4.421716 3:-0.241004 4:3.894235 5:1.176301 6:6.86828 7:2.754441 8:31 
30000 1:3.420655 2:4.421716 3:-0.241004 4:3.894235 5:1.176301 6:6.86828 7:2.754441 8:33 
30000 1:3.420655 2:4.421716 3:-0.241004 4:3.894235 5:1.176301 6:6.86828 7:2.754441 8:35 
20694.26524673013 1:3.420655 2:4.421716 3:-0.241004 4:3.894235 5:1.176301 6:6.86828 7:2.754441 8:37 
4815.414741096986 1:3.420655 2:4.421716 3:-0.241004 4:3.894235 5:1.176301 6:6.86828 7:2.754441 8:39 
-2031.903891702706 1:3.420655 2:4.421716 3:-0.241004 4:3.894235 5:1.176301 6:6.86828 7:2.754441 8:41 
-11135.02141728693 1:3.420655 2:4.421716 3:-0.241004 4:3.894235 5:1.176301 6:6.86828 7:2.754441 8:43 
-16211.37385809868 1:3.420655 2:4.421716 3:-0.241004 4:3.894235 5:1.176301 6:6.86828 7:2.754441 8:45 
-13910.56341167181 1:3.420655 2:4.421716 3:-0.241004 4:3.894235 5:1.176301 6:6.86828 7:2.754441 8:47 
-16929.1828168384 1:3.420655 2:4.421716 3:-0.241004 4:3.894235 5:1.176301 6:6.86828 7:2.754441 8:49 
-2009.296911811199 1:3.43848 2:3.69807 3:-0.145677 4:3.808398 5:1.131793 6:6.930296 7:2.660164 8:1 
-2220.532656438527 1:3.43848 2:3.69807 3:-0.145677 4:3.808398 5:1.131793 6:6.930296 7:2.660164 8:3 
12400.6330877274 1:3.43848 2:3.69807 3:-0.145677 4:3.808398 5:1.131793 6:6.930296 7:2.660164 8:5 
2149.11607885673 1:3.43848 2:3.69807 3:-0.145677 4:3.808398 5:1.131793 6:6.930296 7:2.660164 8:7 
-8527.758263271449 1:3.43848 2:3.69807 3:-0.145677 4:3.808398 5:1.131793 6:6.930296 7:2.660164 8:9 
-11682.40210189083 1:3.43848 2:3.69807 3:-0.145677 4:3.808398 5:1.131793 6:6.930296 7:2.660164 8:11 
-11748.11786949072 1:3.43848 2:3.69807 3:-0.145677 4:3.808398 5:1.131793 6:6.930296 7:2.660164 8:13 
-24565.88375196715 1:3.43848 2:3.69807 3:-0.145677 4:3.808398 5:1.131793 6:6.930296 7:2.660164 8:15 
-18322.99406581891 1:3.43848 2:3.69807 3:-0.145677 4:3.808398 5:1.131793 6:6.930296 7:2.660164 8:17 
-18333.99617212021 1:3.43848 2:3.69807 3:-0.145677 4:3.808398 5:1.131793 6:6.930296 7:2.660164 8:19 
-13643.30170516605 1:3.43848 2:3.69807 3:-0.145677 4:3.808398 5:1.131793 6:6.930296 7:2.660164 8:21 
-8024.047705496933 1:3.43848 2:3.69807 3:-0.145677 4:3.808398 5:1.131793 6:6.930296 7:2.660164 8:23 
-9096.520333090833 1:3.43848 2:3.69807 3:-0.145677 4:3.808398 5:1.131793 6:6.930296 7:2.660164 8:25 
-10032.59531764628 1:3.43848 2:3.69807 3:-0.145677 4:3.808398 5:1.131793 6:6.930296 7:2.660164 8:27 
-15635.29494075001 1:3.43848 2:3.69807 3:-0.145677 4:3.808398 5:1.131793 6:6.930296 7:2.660164 8:29 
-18857.10207333739 1:3.43848 2:3.69807 3:-0.145677 4:3.808398 5:1.131793 6:6.930296 7:2.660164 8:31 
-9977.470288768442 1:3.43848 2:3.69807 3:-0.145677 4:3.808398 5:1.131793 6:6.930296 7:2.660164 8:33 
-6190.150853823121 1:3.43848 2:3.69807 3:-0.145677 4:3.808398 5:1.131793 6:6.930296 7:2.660164 8:35 
-8741.25461452618 1:3.43848 2:3.69807 3:-0.145677 4:3.808398 5:1.131793 6:6.930296 7:2.660164 8:37 
-6592.004064772534 1:3.43848 2:3.69807 3:-0.145677 4:3.808398 5:1.131793 6:6.930296 7:2.660164 8:39 
-3995.890177068144 1:3.43848 2:3.69807 3:-0.145677 4:3.808398 5:1.131793 6:6.930296 7:2.660164 8:41 
-2934.78304382167 1:3.43848 2:3.69807 3:-0.145677 4:3.808398 5:1.131793 6:6.930296 7:2.660164 8:43 
-5945.664556016696 1:3.43848 2:3.69807 3:-0.145677 4:3.808398 5:1.131793 6:6.930296 7:2.660164 8:45 
-5052.283667748897 1:3.43848 2:3.69807 3:-0.145677 4:3.808398 5:1.131793 6:6.930296 7:2.660164 8:47 
-7619.306959828707 1:3.43848 2:3.69807 3:-0.145677 4:3.808398 5:1.131793 6:6.930296 7:2.660164 8:49 
-21964.61351547828 1:3.326166 2:4.247221 3:-0.09911 4:3.990026 5:1.383061 6:6.953178 7:2.680529 8:1 
-23508.98251024522 1:3.326166 2:4.247221 3:-0.09911 4:3.990026 5:1.383061 6:6.953178 7:2.680529 8:3 
28867.93296132346 1:3.326166 2:4.247221 3:-0.09911 4:3.990026 5:1.383061 6:6.953178 7:2.680529 8:5 
10334.48491708958 1:3.326166 2:4.247221 3:-0.09911 4:3.990026 5:1.383061 6:6.953178 7:2.680529 8:7 
-10596.62201640675 1:3.326166 2:4.247221 3:-0.09911 4:3.990026 5:1.383061 6:6.953178 7:2.680529 8:11 
-25133.56630410062 1:3.326166 2:4.247221 3:-0.09911 4:3.990026 5:1.383061 6:6.953178 7:2.680529 8:13 
30000 1:3.326166 2:4.247221 3:-0.09911 4:3.990026 5:1.383061 6:6.953178 7:2.680529 8:15 
-30000 1:3.326166 2:4.247221 3:-0.09911 4:3.990026 5:1.383061 6:6.953178 7:2.680529 8:17 
-30000 1:3.326166 2:4.247221 3:-0.09911 4:3.990026 5:1.383061 6:6.953178 7:2.680529 8:19 
-30000 1:3.326166 2:4.247221 3:-0.09911 4:3.990026 5:1.383061 6:6.953178 7:2.680529 8:21 
-30000 1:3.326166 2:4.247221 3:-0.09911 4:3.990026 5:1.383061 6:6.953178 7:2.680529 8:23 
-30000 1:3.326166 2:4.247221 3:-0.09911 4:3.990026 5:1.383061 6:6.953178 7:2.680529 8:25 
-30000 1:3.326166 2:4.247221 3:-0.09911 4:3.990026 5:1.383061 6:6.953178 7:2.680529 8:27 
-30000 1:3.326166 2:4.247221 3:-0.09911 4:3.990026 5:1.383061 6:6.953178 7:2.680529 8:29 
-30000 1:3.326166 2:4.247221 3:-0.09911 4:3.990026 5:1.383061 6:6.953178 7:2.680529 8:31 
-30000 1:3.326166 2:4.247221 3:-0.09911 4:3.990026 5:1.383061 6:6.953178 7:2.680529 8:33 
-30000 1:3.326166 2:4.247221 3:-0.09911 4:3.990026 5:1.383061 6:6.953178 7:2.680529 8:35 
-2163.217468125389 1:3.326166 2:4.247221 3:-0.09911 4:3.990026 5:1.383061 6:6.953178 7:2.680529 8:37 
7436.441623695147 1:3.326166 2:4.247221 3:-0.09911 4:3.990026 5:1.383061 6:6.953178 7:2.680529 8:39 
27412.19145714731 1:3.326166 2:4.247221 3:-0.09911 4:3.990026 5:1.383061 6:6.953178 7:2.680529 8:41 
30000 1:3.326166 2:4.247221 3:-0.09911 4:3.990026 5:1.383061 6:6.953178 7:2.680529 8:43 
30000 1:3.326166 2:4.247221 3:-0.09911 4:3.990026 5:1.383061 6:6.953178 7:2.680529 8:45 
30000 1:3.326166 2:4.247221 3:-0.09911 4:3.990026 5:1.383061 6:6.953178 7:2.680529 8:47 
30000 1:3.326166 2:4.247221 3:-0.09911 4:3.990026 5:1.383061 6:6.953178 7:2.680529 8:49 
30000 1:3.345936 2:4.306732 3:-0.098551 4:3.999221 5:1.518181 6:6.905159 7:2.67693 8:5 
7431.644600728414 1:3.345936 2:4.306732 3:-0.098551 4:3.999221 5:1.518181 6:6.905159 7:2.67693 8:7 
-613.1479869066701 1:3.345936 2:4.306732 3:-0.098551 4:3.999221 5:1.518181 6:6.905159 7:2.67693 8:9 
-11753.8940323416 1:3.345936 2:4.306732 3:-0.098551 4:3.999221 5:1.518181 6:6.905159 7:2.67693 8:11 
-19903.457573986 1:3.345936 2:4.306732 3:-0.098551 4:3.999221 5:1.518181 6:6.905159 7:2.67693 8:13 
30000 1:3.345936 2:4.306732 3:-0.098551 4:3.999221 5:1.518181 6:6.905159 7:2.67693 8:15 
30000 1:3.345936 2:4.306732 3:-0.098551 4:3.999221 5:1.518181 6:6.905159 7:2.67693 8:17 
30000 1:3.345936 2:4.306732 3:-0.098551 4:3.999221 5:1.518181 6:6.905159 7:2.67693 8:19 
30000 1:3.345936 2:4.306732 3:-0.098551 4:3.999221 5:1.518181 6:6.905159 7:2.67693 8:21 
30000 1:3.345936 2:4.306732 3:-0.098551 4:3.999221 5:1.518181 6:6.905159 7:2.67693 8:23 
30000 1:3.345936 2:4.306732 3:-0.098551 4:3.999221 5:1.518181 6:6.905159 7:2.67693 8:25 
30000 1:3.345936 2:4.306732 3:-0.098551 4:3.999221 5:1.518181 6:6.905159 7:2.67693 8:27 
30000 1:3.345936 2:4.306732 3:-0.098551 4:3.999221 5:1.518181 6:6.905159 7:2.67693 8:29 
19022.0361700281 1:3.345936 2:4.306732 3:-0.098551 4:3.999221 5:1.518181 6:6.905159 7:2.67693 8:31 
11219.10746230436 1:3.345936 2:4.306732 3:-0.098551 4:3.999221 5:1.518181 6:6.905159 7:2.67693 8:33 
452.1484856459004 1:3.345936 2:4.306732 3:-0.098551 4:3.999221 5:1.518181 6:6.905159 7:2.67693 8:35 
-386.2213849052164 1:3.345936 2:4.306732 3:-0.098551 4:3.999221 5:1.518181 6:6.905159 7:2.67693 8:37 
-12771.73029929845 1:3.345936 2:4.306732 3:-0.098551 4:3.999221 5:1.518181 6:6.905159 7:2.67693 8:39 
-9610.900277461165 1:3.345936 2:4.306732 3:-0.098551 4:3.999221 5:1.518181 6:6.905159 7:2.67693 8:41 
-3755.383064617871 1:3.345936 2:4.306732 3:-0.098551 4:3.999221 5:1.518181 6:6.905159 7:2.67693 8:43 
-12427.58742266181 1:3.345936 2:4.306732 3:-0.098551 4:3.999221 5:1.518181 6:6.905159 7:2.67693 8:45 
-10723.79327197034 1:3.345936 2:4.306732 3:-0.098551 4:3.999221 5:1.518181 6:6.905159 7:2.67693 8:47 
-536.7823355922915 1:3.345936 2:4.306732 3:-0.098551 4:3.999221 5:1.518181 6:6.905159 7:2.67693 8:49 
3729.729360893174 1:3.181949 2:4.387838 3:-0.14354 4:3.85502 5:1.329786 6:6.892261 7:2.803121 8:1 
2904.557707755455 1:3.181949 2:4.387838 3:-0.14354 4:3.85502 5:1.329786 6:6.892261 7:2.803121 8:3 
-20172.46748302325 1:3.181949 2:4.387838 3:-0.14354 4:3.85502 5:1.329786 6:6.892261 7:2.803121 8:5 
-11987.84848703835 1:3.181949 2:4.387838 3:-0.14354 4:3.85502 5:1.329786 6:6.892261 7:2.803121 8:7 
-13624.28776270652 1:3.181949 2:4.387838 3:-0.14354 4:3.85502 5:1.329786 6:6.892261 7:2.803121 8:9 
-9844.078134246593 1:3.181949 2:4.387838 3:-0.14354 4:3.85502 5:1.329786 6:6.892261 7:2.803121 8:11 
-15606.94997613742 1:3.181949 2:4.387838 3:-0.14354 4:3.85502 5:1.329786 6:6.892261 7:2.803121 8:13 
30000 1:3.181949 2:4.387838 3:-0.14354 4:3.85502 5:1.329786 6:6.892261 7:2.803121 8:15 
-15716.68745232408 1:3.181949 2:4.387838 3:-0.14354 4:3.85502 5:1.329786 6:6.892261 7:2.803121 8:17 
-15675.52040544308 1:3.181949 2:4.387838 3:-0.14354 4:3.85502 5:1.329786 6:6.892261 7:2.803121 8:19 
3090.999676509256 1:3.181949 2:4.387838 3:-0.14354 4:3.85502 5:1.329786 6:6.892261 7:2.803121 8:23 
5783.562316429091 1:3.181949 2:4.387838 3:-0.14354 4:3.85502 5:1.329786 6:6.892261 7:2.803121 8:25 
5373.517641836726 1:3.181949 2:4.387838 3:-0.14354 4:3.85502 5:1.329786 6:6.892261 7:2.803121 8:27 
8727.913875061429 1:3.181949 2:4.387838 3:-0.14354 4:3.85502 5:1.329786 6:6.892261 7:2.803121 8:29 
12942.25559625816 1:3.181949 2:4.387838 3:-0.14354 4:3.85502 5:1.329786 6:6.892261 7:2.803121 8:31 
-3578.094273532384 1:3.181949 2:4.387838 3:-0.14354 4:3.85502 5:1.329786 6:6.892261 7:2.803121 8:33 
-22920.07510838913 1:3.181949 2:4.387838 3:-0.14354 4:3.85502 5:1.329786 6:6.892261 7:2.803121 8:35 
-30000 1:3.181949 2:4.387838 3:-0.14354 4:3.85502 5:1.329786 6:6.892261 7:2.803121 8:37 
-30000 1:3.181949 2:4.387838 3:-0.14354 4:3.85502 5:1.329786 6:6.892261 7:2.803121 8:39 
-27883.48104094969 1:3.181949 2:4.387838 3:-0.14354 4:3.85502 5:1.329786 6:6.892261 7:2.803121 8:41 
-18948.65996956871 1:3.181949 2:4.387838 3:-0.14354 4:3.85502 5:1.329786 6:6.892261 7:2.803121 8:43 
-10070.48350859169 1:3.181949 2:4.387838 3:-0.14354 4:3.85502 5:1.329786 6:6.892261 7:2.803121 8:45 
2760.485753219837 1:3.181949 2:4.387838 3:-0.14354 4:3.85502 5:1.329786 6:6.892261 7:2.803121 8:47 
15397.01085777956 1:3.181949 2:4.387838 3:-0.14354 4:3.85502 5:1.329786 6:6.892261 7:2.803121 8:49 
-5209.820167980107 1:3.35054 2:4.485884 3:-0.142421 4:3.807671 5:1.510812 6:6.945211 7:2.621504 8:1 
-4397.979839218036 1:3.35054 2:4.485884 3:-0.142421 4:3.807671 5:1.510812 6:6.945211 7:2.621504 8:3 
-354.0947644936409 1:3.35054 2:4.485884 3:-0.142421 4:3.807671 5:1.510812 6:6.945211 7:2.621504 8:5 
-4552.867686501791 1:3.35054 2:4.485884 3:-0.142421 4:3.807671 5:1.510812 6:6.945211 7:2.621504 8:7 
1836.646967621012 1:3.35054 2:4.485884 3:-0.142421 4:3.807671 5:1.510812 6:6.945211 7:2.621504 8:11 
7899.803080821926 1:3.35054 2:4.485884 3:-0.142421 4:3.807671 5:1.510812 6:6.945211 7:2.621504 8:13 
-30000 1:3.35054 2:4.485884 3:-0.142421 4:3.807671 5:1.510812 6:6.945211 7:2.621504 8:15 
15301.27754198133 1:3.35054 2:4.485884 3:-0.142421 4:3.807671 5:1.510812 6:6.945211 7:2.621504 8:17 
18757.29007512064 1:3.35054 2:4.485884 3:-0.142421 4:3.807671 5:1.510812 6:6.945211 7:2.621504 8:19 
24449.161486227 1:3.35054 2:4.485884 3:-0.142421 4:3.807671 5:1.510812 6:6.945211 7:2.621504 8:21 
27251.04306366223 1:3.35054 2:4.485884 3:-0.142421 4:3.807671 5:1.510812 6:6.945211 7:2.621504 8:23 
27573.38480741066 1:3.35054 2:4.485884 3:-0.142421 4:3.807671 5:1.510812 6:6.945211 7:2.621504 8:25 
25128.56459868839 1:3.35054 2:4.485884 3:-0.142421 4:3.807671 5:1.510812 6:6.945211 7:2.621504 8:27 
22535.54122894096 1:3.35054 2:4.485884 3:-0.142421 4:3.807671 5:1.510812 6:6.945211 7:2.621504 8:29 
23713.32681869172 1:3.35054 2:4.485884 3:-0.142421 4:3.807671 5:1.510812 6:6.945211 7:2.621504 8:31 
19738.2790571321 1:3.35054 2:4.485884 3:-0.142421 4:3.807671 5:1.510812 6:6.945211 7:2.621504 8:33 
15788.65613550808 1:3.35054 2:4.485884 3:-0.142421 4:3.807671 5:1.510812 6:6.945211 7:2.621504 8:35 
9860.943296745592 1:3.35054 2:4.485884 3:-0.142421 4:3.807671 5:1.510812 6:6.945211 7:2.621504 8:37 
10345.21500794942 1:3.35054 2:4.485884 3:-0.142421 4:3.807671 5:1.510812 6:6.945211 7:2.621504 8:39 
10581.32525561716 1:3.35054 2:4.485884 3:-0.142421 4:3.807671 5:1.510812 6:6.945211 7:2.621504 8:41 
8136.627030511449 1:3.35054 2:4.485884 3:-0.142421 4:3.807671 5:1.510812 6:6.945211 7:2.621504 8:43 
4111.485491055097 1:3.35054 2:4.485884 3:-0.142421 4:3.807671 5:1.510812 6:6.945211 7:2.621504 8:45 
1640.06498153626 1:3.35054 2:4.485884 3:-0.142421 4:3.807671 5:1.510812 6:6.945211 7:2.621504 8:47 
1628.651317394125 1:3.35054 2:4.485884 3:-0.142421 4:3.807671 5:1.510812 6:6.945211 7:2.621504 8:49 
-1903.514103187201 1:3.426168 2:4.475798 3:0.105181 4:3.965595 5:1.539255 6:6.918679 7:2.776071 8:1 
-1262.080792260199 1:3.426168 2:4.475798 3:0.105181 4:3.965595 5:1.539255 6:6.918679 7:2.776071 8:3 
-27822.7482024315 1:3.426168 2:4.475798 3:0.105181 4:3.965595 5:1.539255 6:6.918679 7:2.776071 8:5 
-8921.309394660528 1:3.426168 2:4.475798 3:0.105181 4:3.965595 5:1.539255 6:6.918679 7:2.776071 8:7 
-842.9600609130364 1:3.426168 2:4.475798 3:0.105181 4:3.965595 5:1.539255 6:6.918679 7:2.776071 8:9 
13553.99463604512 1:3.426168 2:4.475798 3:0.105181 4:3.965595 5:1.539255 6:6.918679 7:2.776071 8:11 
21667.33794799171 1:3.426168 2:4.475798 3:0.105181 4:3.965595 5:1.539255 6:6.918679 7:2.776071 8:13 
-30000 1:3.426168 2:4.475798 3:0.105181 4:3.965595 5:1.539255 6:6.918679 7:2.776071 8:15 
30000 1:3.426168 2:4.475798 3:0.105181 4:3.965595 5:1.539255 6:6.918679 7:2.776071 8:17 
30000 1:3.426168 2:4.475798 3:0.105181 4:3.965595 5:1.539255 6:6.918679 7:2.776071 8:19 
30000 1:3.426168 2:4.475798 3:0.105181 4:3.965595 5:1.539255 6:6.918679 7:2.776071 8:21 
30000 1:3.426168 2:4.475798 3:0.105181 4:3.965595 5:1.539255 6:6.918679 7:2.776071 8:25 
30000 1:3.426168 2:4.475798 3:0.105181 4:3.965595 5:1.539255 6:6.918679 7:2.776071 8:27 
12448.86401751266 1:3.426168 2:4.475798 3:0.105181 4:3.965595 5:1.539255 6:6.918679 7:2.776071 8:29 
28331.94640971909 1:3.426168 2:4.475798 3:0.105181 4:3.965595 5:1.539255 6:6.918679 7:2.776071 8:31 
16145.33435493199 1:3.426168 2:4.475798 3:0.105181 4:3.965595 5:1.539255 6:6.918679 7:2.776071 8:33 
1494.53614031391 1:3.426168 2:4.475798 3:0.105181 4:3.965595 5:1.539255 6:6.918679 7:2.776071 8:35 
1939.420661854631 1:3.426168 2:4.475798 3:0.105181 4:3.965595 5:1.539255 6:6.918679 7:2.776071 8:37 
-1347.663019045843 1:3.426168 2:4.475798 3:0.105181 4:3.965595 5:1.539255 6:6.918679 7:2.776071 8:39 
-2955.721878068156 1:3.426168 2:4.475798 3:0.105181 4:3.965595 5:1.539255 6:6.918679 7:2.776071 8:41 
-7675.430197531406 1:3.426168 2:4.475798 3:0.105181 4:3.965595 5:1.539255 6:6.918679 7:2.776071 8:43 
-6593.538960352241 1:3.426168 2:4.475798 3:0.105181 4:3.965595 5:1.539255 6:6.918679 7:2.776071 8:45 
-4483.539608263951 1:3.426168 2:4.475798 3:0.105181 4:3.965595 5:1.539255 6:6.918679 7:2.776071 8:47 
-5609.362521752045 1:3.426168 2:4.475798 3:0.105181 4:3.965595 5:1.539255 6:6.918679 7:2.776071 8:49 
-3614.877785850561 1:3.467653 2:3.672913 3:-0.146148 4:3.887685 5:1.11201 6:6.937156 7:2.796211 8:1 
-3196.525511513489 1:3.467653 2:3.672913 3:-0.146148 4:3.887685 5:1.11201 6:6.937156 7:2.796211 8:3 
618.174951277023 1:3.467653 2:3.672913 3:-0.146148 4:3.887685 5:1.11201 6:6.937156 7:2.796211 8:5 
1877.78703951026 1:3.467653 2:3.672913 3:-0.146148 4:3.887685 5:1.11201 6:6.937156 7:2.796211 8:7 
20225.52635257257 1:3.467653 2:3.672913 3:-0.146148 4:3.887685 5:1.11201 6:6.937156 7:2.796211 8:9 
21137.23362936583 1:3.467653 2:3.672913 3:-0.146148 4:3.887685 5:1.11201 6:6.937156 7:2.796211 8:11 
21775.170182924 1:3.467653 2:3.672913 3:-0.146148 4:3.887685 5:1.11201 6:6.937156 7:2.796211 8:13 
14477.20565761557 1:3.467653 2:3.672913 3:-0.146148 4:3.887685 5:1.11201 6:6.937156 7:2.796211 8:15 
30000 1:3.467653 2:3.672913 3:-0.146148 4:3.887685 5:1.11201 6:6.937156 7:2.796211 8:17 
29106.01543730983 1:3.467653 2:3.672913 3:-0.146148 4:3.887685 5:1.11201 6:6.937156 7:2.796211 8:19 
23982.16032293493 1:3.467653 2:3.672913 3:-0.146148 4:3.887685 5:1.11201 6:6.937156 7:2.796211 8:21 
16520.20809720762 1:3.467653 2:3.672913 3:-0.146148 4:3.887685 5:1.11201 6:6.937156 7:2.796211 8:23 
15396.16986088553 1:3.467653 2:3.672913 3:-0.146148 4:3.887685 5:1.11201 6:6.937156 7:2.796211 8:25 
12956.98727465746 1:3.467653 2:3.672913 3:-0.146148 4:3.887685 5:1.11201 6:6.937156 7:2.796211 8:27 
11722.29147905847 1:3.467653 2:3.672913 3:-0.146148 4:3.887685 5:1.11201 6:6.937156 7:2.796211 8:29 
9582.15286949572 1:3.467653 2:3.672913 3:-0.146148 4:3.887685 5:1.11201 6:6.937156 7:2.796211 8:31 
3523.193170411246 1:3.467653 2:3.672913 3:-0.146148 4:3.887685 5:1.11201 6:6.937156 7:2.796211 8:33 
-3539.026310765918 1:3.467653 2:3.672913 3:-0.146148 4:3.887685 5:1.11201 6:6.937156 7:2.796211 8:37 
-12466.57907450892 1:3.467653 2:3.672913 3:-0.146148 4:3.887685 5:1.11201 6:6.937156 7:2.796211 8:39 
-14321.63084425905 1:3.467653 2:3.672913 3:-0.146148 4:3.887685 5:1.11201 6:6.937156 7:2.796211 8:41 
-15310.92243142348 1:3.467653 2:3.672913 3:-0.146148 4:3.887685 5:1.11201 6:6.937156 7:2.796211 8:43 
-13491.91732414716 1:3.467653 2:3.672913 3:-0.146148 4:3.887685 5:1.11201 6:6.937156 7:2.796211 8:45 
-14381.39843157422 1:3.467653 2:3.672913 3:-0.146148 4:3.887685 5:1.11201 6:6.937156 7:2.796211 8:47 
-14247.11963702788 1:3.467653 2:3.672913 3:-0.146148 4:3.887685 5:1.11201 6:6.937156 7:2.796211 8:49 
1824.951427463102 1:3.46899 2:4.243654 3:0.043711 4:4.006805 5:1.241344 6:6.941761 7:2.728981 8:1 
1482.538669580477 1:3.46899 2:4.243654 3:0.043711 4:4.006805 5:1.241344 6:6.941761 7:2.728981 8:3 
-12463.66323570015 1:3.46899 2:4.243654 3:0.043711 4:4.006805 5:1.241344 6:6.941761 7:2.728981 8:5 
5913.442531888662 1:3.46899 2:4.243654 3:0.043711 4:4.006805 5:1.241344 6:6.941761 7:2.728981 8:9 
-5950.73265637989 1:3.46899 2:4.243654 3:0.043711 4:4.006805 5:1.241344 6:6.941761 7:2.728981 8:13 
-30000 1:3.46899 2:4.243654 3:0.043711 4:4.006805 5:1.241344 6:6.941761 7:2.728981 8:15 
-30000 1:3.46899 2:4.243654 3:0.043711 4:4.006805 5:1.241344 6:6.941761 7:2.728981 8:17 
-13971.67824428041 1:3.46899 2:4.243654 3:0.043711 4:4.006805 5:1.241344 6:6.941761 7:2.728981 8:19 
-20917.26089949576 1:3.46899 2:4.243654 3:0.043711 4:4.006805 5:1.241344 6:6.941761 7:2.728981 8:21 
-30000 1:3.46899 2:4.243654 3:0.043711 4:4.006805 5:1.241344 6:6.941761 7:2.728981 8:23 
-19577.16010059018 1:3.46899 2:4.243654 3:0.043711 4:4.006805 5:1.241344 6:6.941761 7:2.728981 8:25 
-16414.48139246412 1:3.46899 2:4.243654 3:0.043711 4:4.006805 5:1.241344 6:6.941761 7:2.728981 8:27 
-4361.110255662763 1:3.46899 2:4.243654 3:0.043711 4:4.006805 5:1.241344 6:6.941761 7:2.728981 8:29 
-4486.45757946718 1:3.46899 2:4.243654 3:0.043711 4:4.006805 5:1.241344 6:6.941761 7:2.728981 8:31 
453.8230962283606 1:3.46899 2:4.243654 3:0.043711 4:4.006805 5:1.241344 6:6.941761 7:2.728981 8:33 
16303.85517952485 1:3.46899 2:4.243654 3:0.043711 4:4.006805 5:1.241344 6:6.941761 7:2.728981 8:35 
23498.44009910191 1:3.46899 2:4.243654 3:0.043711 4:4.006805 5:1.241344 6:6.941761 7:2.728981 8:37 
26714.26487871423 1:3.46899 2:4.243654 3:0.043711 4:4.006805 5:1.241344 6:6.941761 7:2.728981 8:39 
24868.35891219997 1:3.46899 2:4.243654 3:0.043711 4:4.006805 5:1.241344 6:6.941761 7:2.728981 8:41 
20574.7561066529 1:3.46899 2:4.243654 3:0.043711 4:4.006805 5:1.241344 6:6.941761 7:2.728981 8:43 
12461.69550548271 1:3.46899 2:4.243654 3:0.043711 4:4.006805 5:1.241344 6:6.941761 7:2.728981 8:45 
18456.13481800641 1:3.46899 2:4.243654 3:0.043711 4:4.006805 5:1.241344 6:6.941761 7:2.728981 8:47 
20434.72009310661 1:3.46899 2:4.243654 3:0.043711 4:4.006805 5:1.241344 6:6.941761 7:2.728981 8:49 
1461.498126573347 1:3.30437 2:3.97656 3:-0.241337 4:4.002035 5:1.270087 6:6.869533 7:2.774653 8:1 
1713.149109937668 1:3.30437 2:3.97656 3:-0.241337 4:4.002035 5:1.270087 6:6.869533 7:2.774653 8:3 
-23369.24611044204 1:3.30437 2:3.97656 3:-0.241337 4:4.002035 5:1.270087 6:6.869533 7:2.774653 8:5 
-23457.7919064002 1:3.30437 2:3.97656 3:-0.241337 4:4.002035 5:1.270087 6:6.869533 7:2.774653 8:7 
-24397.31079218716 1:3.30437 2:3.97656 3:-0.241337 4:4.002035 5:1.270087 6:6.869533 7:2.774653 8:9 
-25258.53408906501 1:3.30437 2:3.97656 3:-0.241337 4:4.002035 5:1.270087 6:6.869533 7:2.774653 8:11 
-24315.96079600725 1:3.30437 2:3.97656 3:-0.241337 4:4.002035 5:1.270087 6:6.869533 7:2.774653 8:13 
-22078.23759463734 1:3.30437 2:3.97656 3:-0.241337 4:4.002035 5:1.270087 6:6.869533 7:2.774653 8:15 
-30000 1:3.30437 2:3.97656 3:-0.241337 4:4.002035 5:1.270087 6:6.869533 7:2.774653 8:17 
-14823.40784335116 1:3.30437 2:3.97656 3:-0.241337 4:4.002035 5:1.270087 6:6.869533 7:2.774653 8:19 
-3405.718479557497 1:3.30437 2:3.97656 3:-0.241337 4:4.002035 5:1.270087 6:6.869533 7:2.774653 8:21 
10544.96907025706 1:3.30437 2:3.97656 3:-0.241337 4:4.002035 5:1.270087 6:6.869533 7:2.774653 8:23 
22885.39539987855 1:3.30437 2:3.97656 3:-0.241337 4:4.002035 5:1.270087 6:6.869533 7:2.774653 8:25 
30000 1:3.30437 2:3.97656 3:-0.241337 4:4.002035 5:1.270087 6:6.869533 7:2.774653 8:27 
30000 1:3.30437 2:3.97656 3:-0.241337 4:4.002035 5:1.270087 6:6.869533 7:2.774653 8:29 
30000 1:3.30437 2:3.97656 3:-0.241337 4:4.002035 5:1.270087 6:6.869533 7:2.774653 8:31 
30000 1:3.30437 2:3.97656 3:-0.241337 4:4.002035 5:1.270087 6:6.869533 7:2.774653 8:33 
30000 1:3.30437 2:3.97656 3:-0.241337 4:4.002035 5:1.270087 6:6.869533 7:2.774653 8:35 
30000 1:3.30437 2:3.97656 3:-0.241337 4:4.002035 5:1.270087 6:6.869533 7:2.774653 8:37 
30000 1:3.30437 2:3.97656 3:-0.241337 4:4.002035 5:1.270087 6:6.869533 7:2.774653 8:39 
30000 1:3.30437 2:3.97656 3:-0.241337 4:4.002035 5:1.270087 6:6.869533 7:2.774653 8:41 
30000 1:3.30437 2:3.97656 3:-0.241337 4:4.002035 5:1.270087 6:6.869533 7:2.774653 8:43 
30000 1:3.30437 2:3.97656 3:-0.241337 4:4.002035 5:1.270087 6:6.869533 7:2.774653 8:45 
27177.71786106752 1:3.30437 2:3.97656 3:-0.241337 4:4.002035 5:1.270087 6:6.869533 7:2.774653 8:47 
16471.85029459507 1:3.30437 2:3.97656 3:-0.241337 4:4.002035 5:1.270087 6:6.869533 7:2.774653 8:49 
-437.82214449521 1:3.514656 2:4.084238 3:0.121355 4:3.996933 5:1.530329 6:6.939978 7:2.636537 8:1 
-30000 1:3.514656 2:4.084238 3:0.121355 4:3.996933 5:1.530329 6:6.939978 7:2.636537 8:5 
9786.074775266647 1:3.514656 2:4.084238 3:0.121355 4:3.996933 5:1.530329 6:6.939978 7:2.636537 8:7 
15520.72567802074 1:3.514656 2:4.084238 3:0.121355 4:3.996933 5:1.530329 6:6.939978 7:2.636537 8:9 
29131.4869863301 1:3.514656 2:4.084238 3:0.121355 4:3.996933 5:1.530329 6:6.939978 7:2.636537 8:11 
26690.22589744834 1:3.514656 2:4.084238 3:0.121355 4:3.996933 5:1.530329 6:6.939978 7:2.636537 8:13 
-15937.73841775892 1:3.514656 2:4.084238 3:0.121355 4:3.996933 5:1.530329 6:6.939978 7:2.636537 8:15 
-18295.2444824483 1:3.514656 2:4.084238 3:0.121355 4:3.996933 5:1.530329 6:6.939978 7:2.636537 8:17 
-15628.59211938119 1:3.514656 2:4.084238 3:0.121355 4:3.996933 5:1.530329 6:6.939978 7:2.636537 8:19 
-18523.91352267158 1:3.514656 2:4.084238 3:0.121355 4:3.996933 5:1.530329 6:6.939978 7:2.636537 8:21 
-24393.70914614264 1:3.514656 2:4.084238 3:0.121355 4:3.996933 5:1.530329 6:6.939978 7:2.636537 8:23 
-23260.41732328461 1:3.514656 2:4.084238 3:0.121355 4:3.996933 5:1.530329 6:6.939978 7:2.636537 8:25 
-25019.49462893801 1:3.514656 2:4.084238 3:0.121355 4:3.996933 5:1.530329 6:6.939978 7:2.636537 8:27 
-27683.2791591756 1:3.514656 2:4.084238 3:0.121355 4:3.996933 5:1.530329 6:6.939978 7:2.636537 8:29 
-19224.99086202817 1:3.514656 2:4.084238 3:0.121355 4:3.996933 5:1.530329 6:6.939978 7:2.636537 8:31 
-16585.74081489812 1:3.514656 2:4.084238 3:0.121355 4:3.996933 5:1.530329 6:6.939978 7:2.636537 8:33 
-10199.06340586715 1:3.514656 2:4.084238 3:0.121355 4:3.996933 5:1.530329 6:6.939978 7:2.636537 8:35 
-1556.20444932587 1:3.514656 2:4.084238 3:0.121355 4:3.996933 5:1.530329 6:6.939978 7:2.636537 8:37 
8850.957399144036 1:3.514656 2:4.084238 3:0.121355 4:3.996933 5:1.530329 6:6.939978 7:2.636537 8:39 
13758.35963390606 1:3.514656 2:4.084238 3:0.121355 4:3.996933 5:1.530329 6:6.939978 7:2.636537 8:41 
19315.37206904009 1:3.514656 2:4.084238 3:0.121355 4:3.996933 5:1.530329 6:6.939978 7:2.636537 8:43 
29581.28809331452 1:3.514656 2:4.084238 3:0.121355 4:3.996933 5:1.530329 6:6.939978 7:2.636537 8:45 
24442.96438458163 1:3.514656 2:4.084238 3:0.121355 4:3.996933 5:1.530329 6:6.939978 7:2.636537 8:47 
26320.20423590017 1:3.514656 2:4.084238 3:0.121355 4:3.996933 5:1.530329 6:6.939978 7:2.636537 8:49 
30000 1:3.27361 2:4.015979 3:-0.156762 4:3.899783 5:1.198551 6:6.86999 7:2.69166 8:5 
30000 1:3.27361 2:4.015979 3:-0.156762 4:3.899783 5:1.198551 6:6.86999 7:2.69166 8:7 
30000 1:3.27361 2:4.015979 3:-0.156762 4:3.899783 5:1.198551 6:6.86999 7:2.69166 8:9 
17633.14092086327 1:3.27361 2:4.015979 3:-0.156762 4:3.899783 5:1.198551 6:6.86999 7:2.69166 8:11 
86.70536266163558 1:3.27361 2:4.015979 3:-0.156762 4:3.899783 5:1.198551 6:6.86999 7:2.69166 8:13 
22364.00051699472 1:3.27361 2:4.015979 3:-0.156762 4:3.899783 5:1.198551 6:6.86999 7:2.69166 8:15 
-23145.38398154356 1:3.27361 2:4.015979 3:-0.156762 4:3.899783 5:1.198551 6:6.86999 7:2.69166 8:17 
-29709.36488211224 1:3.27361 2:4.015979 3:-0.156762 4:3.899783 5:1.198551 6:6.86999 7:2.69166 8:19 
-30000 1:3.27361 2:4.015979 3:-0.156762 4:3.899783 5:1.198551 6:6.86999 7:2.69166 8:21 
-30000 1:3.27361 2:4.015979 3:-0.156762 4:3.899783 5:1.198551 6:6.86999 7:2.69166 8:23 
-30000 1:3.27361 2:4.015979 3:-0.156762 4:3.899783 5:1.198551 6:6.86999 7:2.69166 8:25 
-30000 1:3.27361 2:4.015979 3:-0.156762 4:3.899783 5:1.198551 6:6.86999 7:2.69166 8:27 
-29367.4751015213 1:3.27361 2:4.015979 3:-0.156762 4:3.899783 5:1.198551 6:6.86999 7:2.69166 8:29 
-8979.454737078522 1:3.27361 2:4.015979 3:-0.156762 4:3.899783 5:1.198551 6:6.86999 7:2.69166 8:31 
-5917.93081983817 1:3.27361 2:4.015979 3:-0.156762 4:3.899783 5:1.198551 6:6.86999 7:2.69166 8:33 
877.0770367787549 1:3.27361 2:4.015979 3:-0.156762 4:3.899783 5:1.198551 6:6.86999 7:2.69166 8:35 
12685.03436231283 1:3.27361 2:4.015979 3:-0.156762 4:3.899783 5:1.198551 6:6.86999 7:2.69166 8:37 
26517.72825818296 1:3.27361 2:4.015979 3:-0.156762 4:3.899783 5:1.198551 6:6.86999 7:2.69166 8:39 
30000 1:3.27361 2:4.015979 3:-0.156762 4:3.899783 5:1.198551 6:6.86999 7:2.69166 8:41 
13698.09055185738 1:3.27361 2:4.015979 3:-0.156762 4:3.899783 5:1.198551 6:6.86999 7:2.69166 8:43 
-11816.20887464278 1:3.27361 2:4.015979 3:-0.156762 4:3.899783 5:1.198551 6:6.86999 7:2.69166 8:47 
-17952.54813991686 1:3.27361 2:4.015979 3:-0.156762 4:3.899783 5:1.198551 6:6.86999 7:2.69166 8:49 
28.05082887746162 1:3.577486 2:3.836353 3:0.179411 4:3.908982 5:1.307121 6:6.93794 7:2.794652 8:1 
195.1965888129868 1:3.577486 2:3.836353 3:0.179411 4:3.908982 5:1.307121 6:6.93794 7:2.794652 8:3 
19187.4228317982 1:3.577486 2:3.836353 3:0.179411 4:3.908982 5:1.307121 6:6.93794 7:2.794652 8:5 
5622.642599006981 1:3.577486 2:3.836353 3:0.179411 4:3.908982 5:1.307121 6:6.93794 7:2.794652 8:7 
8610.367718761039 1:3.577486 2:3.836353 3:0.179411 4:3.908982 5:1.307121 6:6.93794 7:2.794652 8:9 
10455.84388149759 1:3.577486 2:3.836353 3:0.179411 4:3.908982 5:1.307121 6:6.93794 7:2.794652 8:11 
12688.80740054331 1:3.577486 2:3.836353 3:0.179411 4:3.908982 5:1.307121 6:6.93794 7:2.794652 8:13 
18047.71166110202 1:3.577486 2:3.836353 3:0.179411 4:3.908982 5:1.307121 6:6.93794 7:2.794652 8:15 
30000 1:3.577486 2:3.836353 3:0.179411 4:3.908982 5:1.307121 6:6.93794 7:2.794652 8:17 
28242.77635329691 1:3.577486 2:3.836353 3:0.179411 4:3.908982 5:1.307121 6:6.93794 7:2.794652 8:19 
20356.65806517306 1:3.577486 2:3.836353 3:0.179411 4:3.908982 5:1.307121 6:6.93794 7:2.794652 8:21 
21670.83992488904 1:3.577486 2:3.836353 3:0.179411 4:3.908982 5:1.307121 6:6.93794 7:2.794652 8:23 
11476.68967361507 1:3.577486 2:3.836353 3:0.179411 4:3.908982 5:1.307121 6:6.93794 7:2.794652 8:25 
-5054.888037728037 1:3.577486 2:3.836353 3:0.179411 4:3.908982 5:1.307121 6:6.93794 7:2.794652 8:29 
-13688.40137858555 1:3.577486 2:3.836353 3:0.179411 4:3.908982 5:1.307121 6:6.93794 7:2.794652 8:31 
-19289.21901417552 1:3.577486 2:3.836353 3:0.179411 4:3.908982 5:1.307121 6:6.93794 7:2.794652 8:33 
-16012.36242044 1:3.577486 2:3.836353 3:0.179411 4:3.908982 5:1.307121 6:6.93794 7:2.794652 8:35 
-11274.7149439156 1:3.577486 2:3.836353 3:0.179411 4:3.908982 5:1.307121 6:6.93794 7:2.794652 8:37 
-5192.865612936602 1:3.577486 2:3.836353 3:0.179411 4:3.908982 5:1.307121 6:6.93794 7:2.794652 8:39 
-3846.667383612244 1:3.577486 2:3.836353 3:0.179411 4:3.908982 5:1.307121 6:6.93794 7:2.794652 8:41 
1491.928265502832 1:3.577486 2:3.836353 3:0.179411 4:3.908982 5:1.307121 6:6.93794 7:2.794652 8:45 
1011.911752587106 1:3.577486 2:3.836353 3:0.179411 4:3.908982 5:1.307121 6:6.93794 7:2.794652 8:47 
7406.398288236605 1:3.577486 2:3.836353 3:0.179411 4:3.908982 5:1.307121 6:6.93794 7:2.794652 8:49 
-3668.78335473391 1:3.20177 2:4.589337 3:-0.337819 4:3.824326 5:1.394971 6:6.905467 7:2.764427 8:1 
-2728.4875599489 1:3.20177 2:4.589337 3:-0.337819 4:3.824326 5:1.394971 6:6.905467 7:2.764427 8:3 
-10037.05934249139 1:3.20177 2:4.589337 3:-0.337819 4:3.824326 5:1.394971 6:6.905467 7:2.764427 8:5 
-8702.067563985622 1:3.20177 2:4.589337 3:-0.337819 4:3.824326 5:1.394971 6:6.905467 7:2.764427 8:7 
-5912.221555219849 1:3.20177 2:4.589337 3:-0.337819 4:3.824326 5:1.394971 6:6.905467 7:2.764427 8:9 
-205.9238647781715 1:3.20177 2:4.589337 3:-0.337819 4:3.824326 5:1.394971 6:6.905467 7:2.764427 8:11 
-30000 1:3.20177 2:4.589337 3:-0.337819 4:3.824326 5:1.394971 6:6.905467 7:2.764427 8:15 
-4701.500004429123 1:3.20177 2:4.589337 3:-0.337819 4:3.824326 5:1.394971 6:6.905467 7:2.764427 8:17 
5365.999209008353 1:3.20177 2:4.589337 3:-0.337819 4:3.824326 5:1.394971 6:6.905467 7:2.764427 8:19 
14045.90368842386 1:3.20177 2:4.589337 3:-0.337819 4:3.824326 5:1.394971 6:6.905467 7:2.764427 8:21 
20222.57071486499 1:3.20177 2:4.589337 3:-0.337819 4:3.824326 5:1.394971 6:6.905467 7:2.764427 8:23 
26516.96712940482 1:3.20177 2:4.589337 3:-0.337819 4:3.824326 5:1.394971 6:6.905467 7:2.764427 8:25 
29833.83163367489 1:3.20177 2:4.589337 3:-0.337819 4:3.824326 5:1.394971 6:6.905467 7:2.764427 8:27 
26375.83751631299 1:3.20177 2:4.589337 3:-0.337819 4:3.824326 5:1.394971 6:6.905467 7:2.764427 8:29 
22503.52645841191 1:3.20177 2:4.589337 3:-0.337819 4:3.824326 5:1.394971 6:6.905467 7:2.764427 8:31 
26561.11507017247 1:3.20177 2:4.589337 3:-0.337819 4:3.824326 5:1.394971 6:6.905467 7:2.764427 8:33 
30000 1:3.20177 2:4.589337 3:-0.337819 4:3.824326 5:1.394971 6:6.905467 7:2.764427 8:35 
29093.02452515977 1:3.20177 2:4.589337 3:-0.337819 4:3.824326 5:1.394971 6:6.905467 7:2.764427 8:37 
26663.81594952822 1:3.20177 2:4.589337 3:-0.337819 4:3.824326 5:1.394971 6:6.905467 7:2.764427 8:39 
27875.37015080837 1:3.20177 2:4.589337 3:-0.337819 4:3.824326 5:1.394971 6:6.905467 7:2.764427 8:41 
25012.16589812955 1:3.20177 2:4.589337 3:-0.337819 4:3.824326 5:1.394971 6:6.905467 7:2.764427 8:43 
26869.18549952997 1:3.20177 2:4.589337 3:-0.337819 4:3.824326 5:1.394971 6:6.905467 7:2.764427 8:45 
22011.261688543 1:3.20177 2:4.589337 3:-0.337819 4:3.824326 5:1.394971 6:6.905467 7:2.764427 8:47 
15542.60883237336 1:3.20177 2:4.589337 3:-0.337819 4:3.824326 5:1.394971 6:6.905467 7:2.764427 8:49 
9276.593374865006 1:3.458739 2:3.694217 3:-0.168244 4:3.931666 5:1.205683 6:6.944837 7:2.762488 8:1 
8285.47469941232 1:3.458739 2:3.694217 3:-0.168244 4:3.931666 5:1.205683 6:6.944837 7:2.762488 8:3 
10418.45505076821 1:3.458739 2:3.694217 3:-0.168244 4:3.931666 5:1.205683 6:6.944837 7:2.762488 8:5 
8422.684822447345 1:3.458739 2:3.694217 3:-0.168244 4:3.931666 5:1.205683 6:6.944837 7:2.762488 8:7 
-28299.59313338876 1:3.458739 2:3.694217 3:-0.168244 4:3.931666 5:1.205683 6:6.944837 7:2.762488 8:9 
-30000 1:3.458739 2:3.694217 3:-0.168244 4:3.931666 5:1.205683 6:6.944837 7:2.762488 8:11 
-30000 1:3.458739 2:3.694217 3:-0.168244 4:3.931666 5:1.205683 6:6.944837 7:2.762488 8:13 
-30000 1:3.458739 2:3.694217 3:-0.168244 4:3.931666 5:1.205683 6:6.944837 7:2.762488 8:15 
-30000 1:3.458739 2:3.694217 3:-0.168244 4:3.931666 5:1.205683 6:6.944837 7:2.762488 8:17 
-30000 1:3.458739 2:3.694217 3:-0.168244 4:3.931666 5:1.205683 6:6.944837 7:2.762488 8:19 
-30000 1:3.458739 2:3.694217 3:-0.168244 4:3.931666 5:1.205683 6:6.944837 7:2.762488 8:21 
-30000 1:3.458739 2:3.694217 3:-0.168244 4:3.931666 5:1.205683 6:6.944837 7:2.762488 8:23 
-30000 1:3.458739 2:3.694217 3:-0.168244 4:3.931666 5:1.205683 6:6.944837 7:2.762488 8:25 
-30000 1:3.458739 2:3.694217 3:-0.168244 4:3.931666 5:1.205683 6:6.944837 7:2.762488 8:27 
-30000 1:3.458739 2:3.694217 3:-0.168244 4:3.931666 5:1.205683 6:6.944837 7:2.762488 8:29 
-30000 1:3.458739 2:3.694217 3:-0.168244 4:3.931666 5:1.205683 6:6.944837 7:2.762488 8:31 
-30000 1:3.458739 2:3.694217 3:-0.168244 4:3.931666 5:1.205683 6:6.944837 7:2.762488 8:33 
-30000 1:3.458739 2:3.694217 3:-0.168244 4:3.931666 5:1.205683 6:6.944837 7:2.762488 8:35 
-10752.87559807707 1:3.458739 2:3.694217 3:-0.168244 4:3.931666 5:1.205683 6:6.944837 7:2.762488 8:37 
8948.51514391925 1:3.458739 2:3.694217 3:-0.168244 4:3.931666 5:1.205683 6:6.944837 7:2.762488 8:39 
15121.53756006631 1:3.458739 2:3.694217 3:-0.168244 4:3.931666 5:1.205683 6:6.944837 7:2.762488 8:41 
20652.75104699256 1:3.458739 2:3.694217 3:-0.168244 4:3.931666 5:1.205683 6:6.944837 7:2.762488 8:43 
26439.80868406746 1:3.458739 2:3.694217 3:-0.168244 4:3.931666 5:1.205683 6:6.944837 7:2.762488 8:45 
30000 1:3.458739 2:3.694217 3:-0.168244 4:3.931666 5:1.205683 6:6.944837 7:2.762488 8:47 
30000 1:3.458739 2:3.694217 3:-0.168244 4:3.931666 5:1.205683 6:6.944837 7:2.762488 8:49 
1185.94377946417 1:3.446313 2:4.020231 3:0.128847 4:3.897713 5:1.480177 6:6.937008 7:2.751632 8:1 
1014.813020260149 1:3.446313 2:4.020231 3:0.128847 4:3.897713 5:1.480177 6:6.937008 7:2.751632 8:3 
-1640.644123683726 1:3.446313 2:4.020231 3:0.128847 4:3.897713 5:1.480177 6:6.937008 7:2.751632 8:7 
4846.002194156621 1:3.446313 2:4.020231 3:0.128847 4:3.897713 5:1.480177 6:6.937008 7:2.751632 8:9 
5271.157022250775 1:3.446313 2:4.020231 3:0.128847 4:3.897713 5:1.480177 6:6.937008 7:2.751632 8:11 
1423.312915194088 1:3.446313 2:4.020231 3:0.128847 4:3.897713 5:1.480177 6:6.937008 7:2.751632 8:13 
-2992.141330254455 1:3.446313 2:4.020231 3:0.128847 4:3.897713 5:1.480177 6:6.937008 7:2.751632 8:15 
-30000 1:3.446313 2:4.020231 3:0.128847 4:3.897713 5:1.480177 6:6.937008 7:2.751632 8:19 
-29254.32712041693 1:3.446313 2:4.020231 3:0.128847 4:3.897713 5:1.480177 6:6.937008 7:2.751632 8:21 
-22357.50260651279 1:3.446313 2:4.020231 3:0.128847 4:3.897713 5:1.480177 6:6.937008 7:2.751632 8:23 
-30000 1:3.446313 2:4.020231 3:0.128847 4:3.897713 5:1.480177 6:6.937008 7:2.751632 8:25 
-30000 1:3.446313 2:4.020231 3:0.128847 4:3.897713 5:1.480177 6:6.937008 7:2.751632 8:27 
-17360.26259764386 1:3.446313 2:4.020231 3:0.128847 4:3.897713 5:1.480177 6:6.937008 7:2.751632 8:29 
-10477.72574918695 1:3.446313 2:4.020231 3:0.128847 4:3.897713 5:1.480177 6:6.937008 7:2.751632 8:31 
-9823.823519349911 1:3.446313 2:4.020231 3:0.128847 4:3.897713 5:1.480177 6:6.937008 7:2.751632 8:33 
-9306.368248028766 1:3.446313 2:4.020231 3:0.128847 4:3.897713 5:1.480177 6:6.937008 7:2.751632 8:35 
-11237.61951761706 1:3.446313 2:4.020231 3:0.128847 4:3.897713 5:1.480177 6:6.937008 7:2.751632 8:37 
-8741.092867593676 1:3.446313 2:4.020231 3:0.128847 4:3.897713 5:1.480177 6:6.937008 7:2.751632 8:39 
-5334.99834761632 1:3.446313 2:4.020231 3:0.128847 4:3.897713 5:1.480177 6:6.937008 7:2.751632 8:41 
-715.6041171501276 1:3.446313 2:4.020231 3:0.128847 4:3.897713 5:1.480177 6:6.937008 7:2.751632 8:43 
3548.506284415448 1:3.446313 2:4.020231 3:0.128847 4:3.897713 5:1.480177 6:6.937008 7:2.751632 8:47 
9026.961287068591 1:3.446313 2:4.020231 3:0.128847 4:3.897713 5:1.480177 6:6.937008 7:2.751632 8:49 
111.064809348012 1:3.401086 2:4.160802 3:-0.1104 4:3.843344 5:1.590673 6:6.92298 7:2.744303 8:1 
30000 1:3.401086 2:4.160802 3:-0.1104 4:3.843344 5:1.590673 6:6.92298 7:2.744303 8:5 
14073.75890569405 1:3.401086 2:4.160802 3:-0.1104 4:3.843344 5:1.590673 6:6.92298 7:2.744303 8:7 
23125.87341123325 1:3.401086 2:4.160802 3:-0.1104 4:3.843344 5:1.590673 6:6.92298 7:2.744303 8:9 
16446.54141456418 1:3.401086 2:4.160802 3:-0.1104 4:3.843344 5:1.590673 6:6.92298 7:2.744303 8:11 
12952.61360009894 1:3.401086 2:4.160802 3:-0.1104 4:3.843344 5:1.590673 6:6.92298 7:2.744303 8:13 
63.94930107518949 1:3.401086 2:4.160802 3:-0.1104 4:3.843344 5:1.590673 6:6.92298 7:2.744303 8:15 
-6638.202858767127 1:3.401086 2:4.160802 3:-0.1104 4:3.843344 5:1.590673 6:6.92298 7:2.744303 8:17 
-3803.738821166532 1:3.401086 2:4.160802 3:-0.1104 4:3.843344 5:1.590673 6:6.92298 7:2.744303 8:19 
952.5357922663903 1:3.401086 2:4.160802 3:-0.1104 4:3.843344 5:1.590673 6:6.92298 7:2.744303 8:21 
1437.722433622918 1:3.401086 2:4.160802 3:-0.1104 4:3.843344 5:1.590673 6:6.92298 7:2.744303 8:25 
-9827.732516165423 1:3.401086 2:4.160802 3:-0.1104 4:3.843344 5:1.590673 6:6.92298 7:2.744303 8:27 
9008.414260805112 1:3.401086 2:4.160802 3:-0.1104 4:3.843344 5:1.590673 6:6.92298 7:2.744303 8:31 
-4086.718960713541 1:3.401086 2:4.160802 3:-0.1104 4:3.843344 5:1.590673 6:6.92298 7:2.744303 8:33 
23766.60699050684 1:3.401086 2:4.160802 3:-0.1104 4:3.843344 5:1.590673 6:6.92298 7:2.744303 8:35 
23812.65072482378 1:3.401086 2:4.160802 3:-0.1104 4:3.843344 5:1.590673 6:6.92298 7:2.744303 8:37 
20818.42518834788 1:3.401086 2:4.160802 3:-0.1104 4:3.843344 5:1.590673 6:6.92298 7:2.744303 8:39 
30000 1:3.401086 2:4.160802 3:-0.1104 4:3.843344 5:1.590673 6:6.92298 7:2.744303 8:41 
30000 1:3.401086 2:4.160802 3:-0.1104 4:3.843344 5:1.590673 6:6.92298 7:2.744303 8:43 
30000 1:3.401086 2:4.160802 3:-0.1104 4:3.843344 5:1.590673 6:6.92298 7:2.744303 8:45 
28475.43384443491 1:3.401086 2:4.160802 3:-0.1104 4:3.843344 5:1.590673 6:6.92298 7:2.744303 8:47 
21411.63607358175 1:3.401086 2:4.160802 3:-0.1104 4:3.843344 5:1.590673 6:6.92298 7:2.744303 8:49 
4051.282650241974 1:3.244965 2:4.328674 3:-0.147873 4:3.917105 5:1.415581 6:6.904087 7:2.635768 8:1 
6442.366076131556 1:3.244965 2:4.328674 3:-0.147873 4:3.917105 5:1.415581 6:6.904087 7:2.635768 8:3 
30000 1:3.244965 2:4.328674 3:-0.147873 4:3.917105 5:1.415581 6:6.904087 7:2.635768 8:5 
-30000 1:3.244965 2:4.328674 3:-0.147873 4:3.917105 5:1.415581 6:6.904087 7:2.635768 8:7 
-30000 1:3.244965 2:4.328674 3:-0.147873 4:3.917105 5:1.415581 6:6.904087 7:2.635768 8:9 
-30000 1:3.244965 2:4.328674 3:-0.147873 4:3.917105 5:1.415581 6:6.904087 7:2.635768 8:11 
-30000 1:3.244965 2:4.328674 3:-0.147873 4:3.917105 5:1.415581 6:6.904087 7:2.635768 8:13 
-30000 1:3.244965 2:4.328674 3:-0.147873 4:3.917105 5:1.415581 6:6.904087 7:2.635768 8:15 
30000 1:3.244965 2:4.328674 3:-0.147873 4:3.917105 5:1.415581 6:6.904087 7:2.635768 8:17 
30000 1:3.244965 2:4.328674 3:-0.147873 4:3.917105 5:1.415581 6:6.904087 7:2.635768 8:19 
30000 1:3.244965 2:4.328674 3:-0.147873 4:3.917105 5:1.415581 6:6.904087 7:2.635768 8:21 
30000 1:3.244965 2:4.328674 3:-0.147873 4:3.917105 5:1.415581 6:6.904087 7:2.635768 8:23 
30000 1:3.244965 2:4.328674 3:-0.147873 4:3.917105 5:1.415581 6:6.904087 7:2.635768 8:25 
30000 1:3.244965 2:4.328674 3:-0.147873 4:3.917105 5:1.415581 6:6.904087 7:2.635768 8:27 
30000 1:3.244965 2:4.328674 3:-0.147873 4:3.917105 5:1.415581 6:6.904087 7:2.635768 8:29 
30000 1:3.244965 2:4.328674 3:-0.147873 4:3.917105 5:1.415581 6:6.904087 7:2.635768 8:31 
30000 1:3.244965 2:4.328674 3:-0.147873 4:3.917105 5:1.415581 6:6.904087 7:2.635768 8:33 
30000 1:3.244965 2:4.328674 3:-0.147873 4:3.917105 5:1.415581 6:6.904087 7:2.635768 8:35 
30000 1:3.244965 2:4.328674 3:-0.147873 4:3.917105 5:1.415581 6:6.904087 7:2.635768 8:37 
30000 1:3.244965 2:4.328674 3:-0.147873 4:3.917105 5:1.415581 6:6.904087 7:2.635768 8:39 
30000 1:3.244965 2:4.328674 3:-0.147873 4:3.917105 5:1.415581 6:6.904087 7:2.635768 8:41 
30000 1:3.244965 2:4.328674 3:-0.147873 4:3.917105 5:1.415581 6:6.904087 7:2.635768 8:43 
30000 1:3.244965 2:4.328674 3:-0.147873 4:3.917105 5:1.415581 6:6.904087 7:2.635768 8:45 
30000 1:3.244965 2:4.328674 3:-0.147873 4:3.917105 5:1.415581 6:6.904087 7:2.635768 8:47 
30000 1:3.244965 2:4.328674 3:-0.147873 4:3.917105 5:1.415581 6:6.904087 7:2.635768 8:49 
-1343.538824933963 1:3.20586 2:4.443757 3:-0.11525 4:3.938312 5:1.431757 6:6.948824 7:2.627583 8:1 
-384.3478372756384 1:3.20586 2:4.443757 3:-0.11525 4:3.938312 5:1.431757 6:6.948824 7:2.627583 8:3 
-18590.80265499407 1:3.20586 2:4.443757 3:-0.11525 4:3.938312 5:1.431757 6:6.948824 7:2.627583 8:5 
23992.02527493771 1:3.20586 2:4.443757 3:-0.11525 4:3.938312 5:1.431757 6:6.948824 7:2.627583 8:7 
25102.9077100196 1:3.20586 2:4.443757 3:-0.11525 4:3.938312 5:1.431757 6:6.948824 7:2.627583 8:9 
27644.65700362281 1:3.20586 2:4.443757 3:-0.11525 4:3.938312 5:1.431757 6:6.948824 7:2.627583 8:11 
30000 1:3.20586 2:4.443757 3:-0.11525 4:3.938312 5:1.431757 6:6.948824 7:2.627583 8:13 
-14876.71802784809 1:3.20586 2:4.443757 3:-0.11525 4:3.938312 5:1.431757 6:6.948824 7:2.627583 8:15 
-27149.46485571528 1:3.20586 2:4.443757 3:-0.11525 4:3.938312 5:1.431757 6:6.948824 7:2.627583 8:17 
-27122.58128072063 1:3.20586 2:4.443757 3:-0.11525 4:3.938312 5:1.431757 6:6.948824 7:2.627583 8:19 
-24737.1806641854 1:3.20586 2:4.443757 3:-0.11525 4:3.938312 5:1.431757 6:6.948824 7:2.627583 8:21 
-25534.0721771963 1:3.20586 2:4.443757 3:-0.11525 4:3.938312 5:1.431757 6:6.948824 7:2.627583 8:23 
-17177.73539272752 1:3.20586 2:4.443757 3:-0.11525 4:3.938312 5:1.431757 6:6.948824 7:2.627583 8:25 
-20004.66772511949 1:3.20586 2:4.443757 3:-0.11525 4:3.938312 5:1.431757 6:6.948824 7:2.627583 8:27 
-16620.56859018989 1:3.20586 2:4.443757 3:-0.11525 4:3.938312 5:1.431757 6:6.948824 7:2.627583 8:29 
-9695.811167106602 1:3.20586 2:4.443757 3:-0.11525 4:3.938312 5:1.431757 6:6.948824 7:2.627583 8:31 
-4445.568225496818 1:3.20586 2:4.443757 3:-0.11525 4:3.938312 5:1.431757 6:6.948824 7:2.627583 8:33 
7263.040206764238 1:3.20586 2:4.443757 3:-0.11525 4:3.938312 5:1.431757 6:6.948824 7:2.627583 8:35 
4623.784094158531 1:3.20586 2:4.443757 3:-0.11525 4:3.938312 5:1.431757 6:6.948824 7:2.627583 8:37 
8694.147679621556 1:3.20586 2:4.443757 3:-0.11525 4:3.938312 5:1.431757 6:6.948824 7:2.627583 8:39 
8767.538309930098 1:3.20586 2:4.443757 3:-0.11525 4:3.938312 5:1.431757 6:6.948824 7:2.627583 8:41 
12806.14821549086 1:3.20586 2:4.443757 3:-0.11525 4:3.938312 5:1.431757 6:6.948824 7:2.627583 8:43 
9484.494523264962 1:3.20586 2:4.443757 3:-0.11525 4:3.938312 5:1.431757 6:6.948824 7:2.627583 8:45 
5596.304172202032 1:3.20586 2:4.443757 3:-0.11525 4:3.938312 5:1.431757 6:6.948824 7:2.627583 8:47 
-4051.867710304027 1:3.20586 2:4.443757 3:-0.11525 4:3.938312 5:1.431757 6:6.948824 7:2.627583 8:49 
677.1870356021219 1:3.199061 2:4.27362 3:0.144661 4:3.848577 5:1.301177 6:6.937692 7:2.721321 8:3 
-1023.94977699313 1:3.199061 2:4.27362 3:0.144661 4:3.848577 5:1.301177 6:6.937692 7:2.721321 8:5 
-10702.24205311168 1:3.199061 2:4.27362 3:0.144661 4:3.848577 5:1.301177 6:6.937692 7:2.721321 8:7 
-8624.649222396587 1:3.199061 2:4.27362 3:0.144661 4:3.848577 5:1.301177 6:6.937692 7:2.721321 8:9 
-5030.809359508795 1:3.199061 2:4.27362 3:0.144661 4:3.848577 5:1.301177 6:6.937692 7:2.721321 8:11 
-5825.735693523629 1:3.199061 2:4.27362 3:0.144661 4:3.848577 5:1.301177 6:6.937692 7:2.721321 8:13 
30000 1:3.199061 2:4.27362 3:0.144661 4:3.848577 5:1.301177 6:6.937692 7:2.721321 8:15 
-30000 1:3.199061 2:4.27362 3:0.144661 4:3.848577 5:1.301177 6:6.937692 7:2.721321 8:17 
-30000 1:3.199061 2:4.27362 3:0.144661 4:3.848577 5:1.301177 6:6.937692 7:2.721321 8:19 
-30000 1:3.199061 2:4.27362 3:0.144661 4:3.848577 5:1.301177 6:6.937692 7:2.721321 8:21 
-30000 1:3.199061 2:4.27362 3:0.144661 4:3.848577 5:1.301177 6:6.937692 7:2.721321 8:23 
-30000 1:3.199061 2:4.27362 3:0.144661 4:3.848577 5:1.301177 6:6.937692 7:2.721321 8:25 
-30000 1:3.199061 2:4.27362 3:0.144661 4:3.848577 5:1.301177 6:6.937692 7:2.721321 8:27 
-30000 1:3.199061 2:4.27362 3:0.144661 4:3.848577 5:1.301177 6:6.937692 7:2.721321 8:29 
-30000 1:3.199061 2:4.27362 3:0.144661 4:3.848577 5:1.301177 6:6.937692 7:2.721321 8:31 
-30000 1:3.199061 2:4.27362 3:0.144661 4:3.848577 5:1.301177 6:6.937692 7:2.721321 8:33 
-30000 1:3.199061 2:4.27362 3:0.144661 4:3.848577 5:1.301177 6:6.937692 7:2.721321 8:35 
-27653.6743933626 1:3.199061 2:4.27362 3:0.144661 4:3.848577 5:1.301177 6:6.937692 7:2.721321 8:37 
-14702.61767477888 1:3.199061 2:4.27362 3:0.144661 4:3.848577 5:1.301177 6:6.937692 7:2.721321 8:39 
5497.323831573557 1:3.199061 2:4.27362 3:0.144661 4:3.848577 5:1.301177 6:6.937692 7:2.721321 8:43 
15507.51756194893 1:3.199061 2:4.27362 3:0.144661 4:3.848577 5:1.301177 6:6.937692 7:2.721321 8:45 
25770.51187777626 1:3.199061 2:4.27362 3:0.144661 4:3.848577 5:1.301177 6:6.937692 7:2.721321 8:47 
25104.59543294103 1:3.199061 2:4.27362 3:0.144661 4:3.848577 5:1.301177 6:6.937692 7:2.721321 8:49 
7538.362822616853 1:3.358607 2:4.504718 3:-0.078854 4:3.954281 5:1.536927 6:6.939158 7:2.701381 8:1 
6265.718149595619 1:3.358607 2:4.504718 3:-0.078854 4:3.954281 5:1.536927 6:6.939158 7:2.701381 8:3 
-30000 1:3.358607 2:4.504718 3:-0.078854 4:3.954281 5:1.536927 6:6.939158 7:2.701381 8:5 
15609.96454587714 1:3.358607 2:4.504718 3:-0.078854 4:3.954281 5:1.536927 6:6.939158 7:2.701381 8:7 
11061.90539904762 1:3.358607 2:4.504718 3:-0.078854 4:3.954281 5:1.536927 6:6.939158 7:2.701381 8:9 
4002.927679065644 1:3.358607 2:4.504718 3:-0.078854 4:3.954281 5:1.536927 6:6.939158 7:2.701381 8:11 
-4852.34709825858 1:3.358607 2:4.504718 3:-0.078854 4:3.954281 5:1.536927 6:6.939158 7:2.701381 8:13 
30000 1:3.358607 2:4.504718 3:-0.078854 4:3.954281 5:1.536927 6:6.939158 7:2.701381 8:15 
-25336.25516321436 1:3.358607 2:4.504718 3:-0.078854 4:3.954281 5:1.536927 6:6.939158 7:2.701381 8:17 
-26141.75497627763 1:3.358607 2:4.504718 3:-0.078854 4:3.954281 5:1.536927 6:6.939158 7:2.701381 8:19 
-21630.55354444328 1:3.358607 2:4.504718 3:-0.078854 4:3.954281 5:1.536927 6:6.939158 7:2.701381 8:21 
-9642.010740072961 1:3.358607 2:4.504718 3:-0.078854 4:3.954281 5:1.536927 6:6.939158 7:2.701381 8:23 
-18494.08591287629 1:3.358607 2:4.504718 3:-0.078854 4:3.954281 5:1.536927 6:6.939158 7:2.701381 8:25 
-13692.12829656415 1:3.358607 2:4.504718 3:-0.078854 4:3.954281 5:1.536927 6:6.939158 7:2.701381 8:27 
-11899.0920531553 1:3.358607 2:4.504718 3:-0.078854 4:3.954281 5:1.536927 6:6.939158 7:2.701381 8:29 
-16387.7854906671 1:3.358607 2:4.504718 3:-0.078854 4:3.954281 5:1.536927 6:6.939158 7:2.701381 8:31 
-5229.462094466485 1:3.358607 2:4.504718 3:-0.078854 4:3.954281 5:1.536927 6:6.939158 7:2.701381 8:33 
6540.283312784765 1:3.358607 2:4.504718 3:-0.078854 4:3.954281 5:1.536927 6:6.939158 7:2.701381 8:35 
6178.46444612804 1:3.358607 2:4.504718 3:-0.078854 4:3.954281 5:1.536927 6:6.939158 7:2.701381 8:37 
14113.18098977024 1:3.358607 2:4.504718 3:-0.078854 4:3.954281 5:1.536927 6:6.939158 7:2.701381 8:39 
13765.47670568248 1:3.358607 2:4.504718 3:-0.078854 4:3.954281 5:1.536927 6:6.939158 7:2.701381 8:41 
16537.2967193986 1:3.358607 2:4.504718 3:-0.078854 4:3.954281 5:1.536927 6:6.939158 7:2.701381 8:43 
23260.13790842827 1:3.358607 2:4.504718 3:-0.078854 4:3.954281 5:1.536927 6:6.939158 7:2.701381 8:45 
30000 1:3.358607 2:4.504718 3:-0.078854 4:3.954281 5:1.536927 6:6.939158 7:2.701381 8:47 
30000 1:3.358607 2:4.504718 3:-0.078854 4:3.954281 5:1.536927 6:6.939158 7:2.701381 8:49 
-3412.306998121531 1:3.20528 2:4.285662 3:-0.235179 4:3.830423 5:1.428799 6:6.904949 7:2.750355 8:7 
1222.084555832923 1:3.20528 2:4.285662 3:-0.235179 4:3.830423 5:1.428799 6:6.904949 7:2.750355 8:9 
13850.00319875106 1:3.20528 2:4.285662 3:-0.235179 4:3.830423 5:1.428799 6:6.904949 7:2.750355 8:11 
22173.2517385944 1:3.20528 2:4.285662 3:-0.235179 4:3.830423 5:1.428799 6:6.904949 7:2.750355 8:13 
-30000 1:3.20528 2:4.285662 3:-0.235179 4:3.830423 5:1.428799 6:6.904949 7:2.750355 8:15 
30000 1:3.20528 2:4.285662 3:-0.235179 4:3.830423 5:1.428799 6:6.904949 7:2.750355 8:17 
30000 1:3.20528 2:4.285662 3:-0.235179 4:3.830423 5:1.428799 6:6.904949 7:2.750355 8:19 
30000 1:3.20528 2:4.285662 3:-0.235179 4:3.830423 5:1.428799 6:6.904949 7:2.750355 8:21 
30000 1:3.20528 2:4.285662 3:-0.235179 4:3.830423 5:1.428799 6:6.904949 7:2.750355 8:23 
30000 1:3.20528 2:4.285662 3:-0.235179 4:3.830423 5:1.428799 6:6.904949 7:2.750355 8:25 
30000 1:3.20528 2:4.285662 3:-0.235179 4:3.830423 5:1.428799 6:6.904949 7:2.750355 8:27 
26670.37933966152 1:3.20528 2:4.285662 3:-0.235179 4:3.830423 5:1.428799 6:6.904949 7:2.750355 8:29 
18985.27831735626 1:3.20528 2:4.285662 3:-0.235179 4:3.830423 5:1.428799 6:6.904949 7:2.750355 8:31 
-12340.04353637223 1:3.20528 2:4.285662 3:-0.235179 4:3.830423 5:1.428799 6:6.904949 7:2.750355 8:35 
-8310.004416379399 1:3.20528 2:4.285662 3:-0.235179 4:3.830423 5:1.428799 6:6.904949 7:2.750355 8:37 
-17044.70671922246 1:3.20528 2:4.285662 3:-0.235179 4:3.830423 5:1.428799 6:6.904949 7:2.750355 8:39 
-14647.98627413678 1:3.20528 2:4.285662 3:-0.235179 4:3.830423 5:1.428799 6:6.904949 7:2.750355 8:41 
-15230.93895046348 1:3.20528 2:4.285662 3:-0.235179 4:3.830423 5:1.428799 6:6.904949 7:2.750355 8:43 
-19592.93409759483 1:3.20528 2:4.285662 3:-0.235179 4:3.830423 5:1.428799 6:6.904949 7:2.750355 8:45 
-25785.26762609701 1:3.20528 2:4.285662 3:-0.235179 4:3.830423 5:1.428799 6:6.904949 7:2.750355 8:47 
-30000 1:3.20528 2:4.285662 3:-0.235179 4:3.830423 5:1.428799 6:6.904949 7:2.750355 8:49 
-241.5340324065166 1:3.18116 2:3.665518 3:-0.193083 4:3.866649 5:1.337313 6:6.949173 7:2.636029 8:1 
-154.1551964909761 1:3.18116 2:3.665518 3:-0.193083 4:3.866649 5:1.337313 6:6.949173 7:2.636029 8:3 
6752.954510499752 1:3.18116 2:3.665518 3:-0.193083 4:3.866649 5:1.337313 6:6.949173 7:2.636029 8:5 
13143.90760034638 1:3.18116 2:3.665518 3:-0.193083 4:3.866649 5:1.337313 6:6.949173 7:2.636029 8:7 
15682.34572222231 1:3.18116 2:3.665518 3:-0.193083 4:3.866649 5:1.337313 6:6.949173 7:2.636029 8:9 
15148.30847610412 1:3.18116 2:3.665518 3:-0.193083 4:3.866649 5:1.337313 6:6.949173 7:2.636029 8:11 
11614.15056795523 1:3.18116 2:3.665518 3:-0.193083 4:3.866649 5:1.337313 6:6.949173 7:2.636029 8:13 
-5384.436883806102 1:3.18116 2:3.665518 3:-0.193083 4:3.866649 5:1.337313 6:6.949173 7:2.636029 8:15 
-11940.97582333578 1:3.18116 2:3.665518 3:-0.193083 4:3.866649 5:1.337313 6:6.949173 7:2.636029 8:17 
-28640.04105699913 1:3.18116 2:3.665518 3:-0.193083 4:3.866649 5:1.337313 6:6.949173 7:2.636029 8:19 
-30000 1:3.18116 2:3.665518 3:-0.193083 4:3.866649 5:1.337313 6:6.949173 7:2.636029 8:21 
-30000 1:3.18116 2:3.665518 3:-0.193083 4:3.866649 5:1.337313 6:6.949173 7:2.636029 8:23 
-25603.89089069101 1:3.18116 2:3.665518 3:-0.193083 4:3.866649 5:1.337313 6:6.949173 7:2.636029 8:25 
-19653.29505347242 1:3.18116 2:3.665518 3:-0.193083 4:3.866649 5:1.337313 6:6.949173 7:2.636029 8:27 
-7512.449159893176 1:3.18116 2:3.665518 3:-0.193083 4:3.866649 5:1.337313 6:6.949173 7:2.636029 8:29 
-2490.00924139019 1:3.18116 2:3.665518 3:-0.193083 4:3.866649 5:1.337313 6:6.949173 7:2.636029 8:31 
-1107.555570935146 1:3.18116 2:3.665518 3:-0.193083 4:3.866649 5:1.337313 6:6.949173 7:2.636029 8:33 
-2550.04509438538 1:3.18116 2:3.665518 3:-0.193083 4:3.866649 5:1.337313 6:6.949173 7:2.636029 8:35 
-1463.520598175133 1:3.18116 2:3.665518 3:-0.193083 4:3.866649 5:1.337313 6:6.949173 7:2.636029 8:37 
-1481.030202283662 1:3.18116 2:3.665518 3:-0.193083 4:3.866649 5:1.337313 6:6.949173 7:2.636029 8:39 
-387.7834158519775 1:3.18116 2:3.665518 3:-0.193083 4:3.866649 5:1.337313 6:6.949173 7:2.636029 8:41 
444.3408492358819 1:3.18116 2:3.665518 3:-0.193083 4:3.866649 5:1.337313 6:6.949173 7:2.636029 8:43 
2092.195831808991 1:3.18116 2:3.665518 3:-0.193083 4:3.866649 5:1.337313 6:6.949173 7:2.636029 8:45 
3459.91494376023 1:3.18116 2:3.665518 3:-0.193083 4:3.866649 5:1.337313 6:6.949173 7:2.636029 8:47 
777.8252449970125 1:3.18116 2:3.665518 3:-0.193083 4:3.866649 5:1.337313 6:6.949173 7:2.636029 8:49 
-743.32189622412 1:3.560861 2:4.497675 3:0.057743 4:3.904441 5:1.534734 6:6.920868 7:2.680069 8:1 
-832.8709112070412 1:3.560861 2:4.497675 3:0.057743 4:3.904441 5:1.534734 6:6.920868 7:2.680069 8:3 
5150.45344801482 1:3.560861 2:4.497675 3:0.057743 4:3.904441 5:1.534734 6:6.920868 7:2.680069 8:5 
7929.25333846267 1:3.560861 2:4.497675 3:0.057743 4:3.904441 5:1.534734 6:6.920868 7:2.680069 8:7 
11427.82660306574 1:3.560861 2:4.497675 3:0.057743 4:3.904441 5:1.534734 6:6.920868 7:2.680069 8:9 
12137.8571761693 1:3.560861 2:4.497675 3:0.057743 4:3.904441 5:1.534734 6:6.920868 7:2.680069 8:11 
13388.89672057002 1:3.560861 2:4.497675 3:0.057743 4:3.904441 5:1.534734 6:6.920868 7:2.680069 8:13 
30000 1:3.560861 2:4.497675 3:0.057743 4:3.904441 5:1.534734 6:6.920868 7:2.680069 8:15 
8362.911153486342 1:3.560861 2:4.497675 3:0.057743 4:3.904441 5:1.534734 6:6.920868 7:2.680069 8:17 
1549.115086229343 1:3.560861 2:4.497675 3:0.057743 4:3.904441 5:1.534734 6:6.920868 7:2.680069 8:19 
-4028.465690425187 1:3.560861 2:4.497675 3:0.057743 4:3.904441 5:1.534734 6:6.920868 7:2.680069 8:21 
-5737.803405499894 1:3.560861 2:4.497675 3:0.057743 4:3.904441 5:1.534734 6:6.920868 7:2.680069 8:23 
-16218.32396193763 1:3.560861 2:4.497675 3:0.057743 4:3.904441 5:1.534734 6:6.920868 7:2.680069 8:25 
-18679.02838737063 1:3.560861 2:4.497675 3:0.057743 4:3.904441 5:1.534734 6:6.920868 7:2.680069 8:27 
-21131.75917400591 1:3.560861 2:4.497675 3:0.057743 4:3.904441 5:1.534734 6:6.920868 7:2.680069 8:31 
-18925.97095367199 1:3.560861 2:4.497675 3:0.057743 4:3.904441 5:1.534734 6:6.920868 7:2.680069 8:33 
-9814.81605452047 1:3.560861 2:4.497675 3:0.057743 4:3.904441 5:1.534734 6:6.920868 7:2.680069 8:35 
-3473.605207766354 1:3.560861 2:4.497675 3:0.057743 4:3.904441 5:1.534734 6:6.920868 7:2.680069 8:37 
5422.165398246354 1:3.560861 2:4.497675 3:0.057743 4:3.904441 5:1.534734 6:6.920868 7:2.680069 8:39 
9529.041359499772 1:3.560861 2:4.497675 3:0.057743 4:3.904441 5:1.534734 6:6.920868 7:2.680069 8:41 
15988.9963142593 1:3.560861 2:4.497675 3:0.057743 4:3.904441 5:1.534734 6:6.920868 7:2.680069 8:43 
19671.22095070467 1:3.560861 2:4.497675 3:0.057743 4:3.904441 5:1.534734 6:6.920868 7:2.680069 8:45 
18617.80087339601 1:3.560861 2:4.497675 3:0.057743 4:3.904441 5:1.534734 6:6.920868 7:2.680069 8:47 
21616.08472900323 1:3.560861 2:4.497675 3:0.057743 4:3.904441 5:1.534734 6:6.920868 7:2.680069 8:49 
2290.153223135992 1:3.271993 2:4.080378 3:-0.214317 4:3.873245 5:1.387904 6:6.896728 7:2.771342 8:1 
793.4287907249708 1:3.271993 2:4.080378 3:-0.214317 4:3.873245 5:1.387904 6:6.896728 7:2.771342 8:3 
2956.114485200664 1:3.271993 2:4.080378 3:-0.214317 4:3.873245 5:1.387904 6:6.896728 7:2.771342 8:5 
18370.90680530031 1:3.271993 2:4.080378 3:-0.214317 4:3.873245 5:1.387904 6:6.896728 7:2.771342 8:7 
30000 1:3.271993 2:4.080378 3:-0.214317 4:3.873245 5:1.387904 6:6.896728 7:2.771342 8:9 
30000 1:3.271993 2:4.080378 3:-0.214317 4:3.873245 5:1.387904 6:6.896728 7:2.771342 8:11 
30000 1:3.271993 2:4.080378 3:-0.214317 4:3.873245 5:1.387904 6:6.896728 7:2.771342 8:13 
-30000 1:3.271993 2:4.080378 3:-0.214317 4:3.873245 5:1.387904 6:6.896728 7:2.771342 8:15 
-13469.0243041452 1:3.271993 2:4.080378 3:-0.214317 4:3.873245 5:1.387904 6:6.896728 7:2.771342 8:17 
-9948.24533682236 1:3.271993 2:4.080378 3:-0.214317 4:3.873245 5:1.387904 6:6.896728 7:2.771342 8:19 
-14691.76313029467 1:3.271993 2:4.080378 3:-0.214317 4:3.873245 5:1.387904 6:6.896728 7:2.771342 8:21 
-29840.70918532267 1:3.271993 2:4.080378 3:-0.214317 4:3.873245 5:1.387904 6:6.896728 7:2.771342 8:23 
-30000 1:3.271993 2:4.080378 3:-0.214317 4:3.873245 5:1.387904 6:6.896728 7:2.771342 8:25 
-30000 1:3.271993 2:4.080378 3:-0.214317 4:3.873245 5:1.387904 6:6.896728 7:2.771342 8:27 
-30000 1:3.271993 2:4.080378 3:-0.214317 4:3.873245 5:1.387904 6:6.896728 7:2.771342 8:29 
-23709.50558362862 1:3.271993 2:4.080378 3:-0.214317 4:3.873245 5:1.387904 6:6.896728 7:2.771342 8:31 
-30000 1:3.271993 2:4.080378 3:-0.214317 4:3.873245 5:1.387904 6:6.896728 7:2.771342 8:33 
-30000 1:3.271993 2:4.080378 3:-0.214317 4:3.873245 5:1.387904 6:6.896728 7:2.771342 8:35 
-30000 1:3.271993 2:4.080378 3:-0.214317 4:3.873245 5:1.387904 6:6.896728 7:2.771342 8:37 
-22548.01897351276 1:3.271993 2:4.080378 3:-0.214317 4:3.873245 5:1.387904 6:6.896728 7:2.771342 8:39 
-3705.361253421344 1:3.271993 2:4.080378 3:-0.214317 4:3.873245 5:1.387904 6:6.896728 7:2.771342 8:41 
7617.245882572228 1:3.271993 2:4.080378 3:-0.214317 4:3.873245 5:1.387904 6:6.896728 7:2.771342 8:43 
12075.59477876952 1:3.271993 2:4.080378 3:-0.214317 4:3.873245 5:1.387904 6:6.896728 7:2.771342 8:45 
19577.565342588 1:3.271993 2:4.080378 3:-0.214317 4:3.873245 5:1.387904 6:6.896728 7:2.771342 8:47 
9376.954662914037 1:3.271993 2:4.080378 3:-0.214317 4:3.873245 5:1.387904 6:6.896728 7:2.771342 8:49 
-30000 1:3.318842 2:3.933883 3:-0.219503 4:3.912996 5:1.32231 6:6.903622 7:2.69039 8:5 
-30000 1:3.318842 2:3.933883 3:-0.219503 4:3.912996 5:1.32231 6:6.903622 7:2.69039 8:7 
-30000 1:3.318842 2:3.933883 3:-0.219503 4:3.912996 5:1.32231 6:6.903622 7:2.69039 8:9 
-30000 1:3.318842 2:3.933883 3:-0.219503 4:3.912996 5:1.32231 6:6.903622 7:2.69039 8:11 
-30000 1:3.318842 2:3.933883 3:-0.219503 4:3.912996 5:1.32231 6:6.903622 7:2.69039 8:13 
30000 1:3.318842 2:3.933883 3:-0.219503 4:3.912996 5:1.32231 6:6.903622 7:2.69039 8:15 
15155.40254765968 1:3.318842 2:3.933883 3:-0.219503 4:3.912996 5:1.32231 6:6.903622 7:2.69039 8:17 
30000 1:3.318842 2:3.933883 3:-0.219503 4:3.912996 5:1.32231 6:6.903622 7:2.69039 8:19 
30000 1:3.318842 2:3.933883 3:-0.219503 4:3.912996 5:1.32231 6:6.903622 7:2.69039 8:21 
30000 1:3.318842 2:3.933883 3:-0.219503 4:3.912996 5:1.32231 6:6.903622 7:2.69039 8:23 
30000 1:3.318842 2:3.933883 3:-0.219503 4:3.912996 5:1.32231 6:6.903622 7:2.69039 8:25 
30000 1:3.318842 2:3.933883 3:-0.219503 4:3.912996 5:1.32231 6:6.903622 7:2.69039 8:27 
30000 1:3.318842 2:3.933883 3:-0.219503 4:3.912996 5:1.32231 6:6.903622 7:2.69039 8:29 
30000 1:3.318842 2:3.933883 3:-0.219503 4:3.912996 5:1.32231 6:6.903622 7:2.69039 8:31 
30000 1:3.318842 2:3.933883 3:-0.219503 4:3.912996 5:1.32231 6:6.903622 7:2.69039 8:33 
12948.88756780053 1:3.318842 2:3.933883 3:-0.219503 4:3.912996 5:1.32231 6:6.903622 7:2.69039 8:35 
-27952.85359488618 1:3.318842 2:3.933883 3:-0.219503 4:3.912996 5:1.32231 6:6.903622 7:2.69039 8:37 
-30000 1:3.318842 2:3.933883 3:-0.219503 4:3.912996 5:1.32231 6:6.903622 7:2.69039 8:39 
-30000 1:3.318842 2:3.933883 3:-0.219503 4:3.912996 5:1.32231 6:6.903622 7:2.69039 8:41 
-30000 1:3.318842 2:3.933883 3:-0.219503 4:3.912996 5:1.32231 6:6.903622 7:2.69039 8:43 
-30000 1:3.318842 2:3.933883 3:-0.219503 4:3.912996 5:1.32231 6:6.903622 7:2.69039 8:45 
-30000 1:3.318842 2:3.933883 3:-0.219503 4:3.912996 5:1.32231 6:6.903622 7:2.69039 8:47 
-30000 1:3.318842 2:3.933883 3:-0.219503 4:3.912996 5:1.32231 6:6.903622 7:2.69039 8:49 
-126.9814166309775 1:3.537233 2:3.626015 3:0.070769 4:3.884779 5:1.524787 6:6.926487 7:2.746711 8:1 
-449.4768141932466 1:3.537233 2:3.626015 3:0.070769 4:3.884779 5:1.524787 6:6.926487 7:2.746711 8:3 
19040.46813188553 1:3.537233 2:3.626015 3:0.070769 4:3.884779 5:1.524787 6:6.926487 7:2.746711 8:5 
-289.7401246973323 1:3.537233 2:3.626015 3:0.070769 4:3.884779 5:1.524787 6:6.926487 7:2.746711 8:15 
18736.67200250375 1:3.537233 2:3.626015 3:0.070769 4:3.884779 5:1.524787 6:6.926487 7:2.746711 8:17 
22294.00829970382 1:3.537233 2:3.626015 3:0.070769 4:3.884779 5:1.524787 6:6.926487 7:2.746711 8:19 
26342.9389973236 1:3.537233 2:3.626015 3:0.070769 4:3.884779 5:1.524787 6:6.926487 7:2.746711 8:21 
13488.1812381141 1:3.537233 2:3.626015 3:0.070769 4:3.884779 5:1.524787 6:6.926487 7:2.746711 8:23 
7267.489474790911 1:3.537233 2:3.626015 3:0.070769 4:3.884779 5:1.524787 6:6.926487 7:2.746711 8:25 
-3761.528745562427 1:3.537233 2:3.626015 3:0.070769 4:3.884779 5:1.524787 6:6.926487 7:2.746711 8:27 
-9862.001375031032 1:3.537233 2:3.626015 3:0.070769 4:3.884779 5:1.524787 6:6.926487 7:2.746711 8:29 
-2997.583194767588 1:3.537233 2:3.626015 3:0.070769 4:3.884779 5:1.524787 6:6.926487 7:2.746711 8:31 
-821.7806220304012 1:3.537233 2:3.626015 3:0.070769 4:3.884779 5:1.524787 6:6.926487 7:2.746711 8:33 
-3478.794329041047 1:3.537233 2:3.626015 3:0.070769 4:3.884779 5:1.524787 6:6.926487 7:2.746711 8:35 
-1008.683593636287 1:3.537233 2:3.626015 3:0.070769 4:3.884779 5:1.524787 6:6.926487 7:2.746711 8:37 
1317.973653707229 1:3.537233 2:3.626015 3:0.070769 4:3.884779 5:1.524787 6:6.926487 7:2.746711 8:39 
-3471.67836964928 1:3.537233 2:3.626015 3:0.070769 4:3.884779 5:1.524787 6:6.926487 7:2.746711 8:41 
-11012.88140525779 1:3.537233 2:3.626015 3:0.070769 4:3.884779 5:1.524787 6:6.926487 7:2.746711 8:43 
-14087.95604699948 1:3.537233 2:3.626015 3:0.070769 4:3.884779 5:1.524787 6:6.926487 7:2.746711 8:45 
-14402.19916341095 1:3.537233 2:3.626015 3:0.070769 4:3.884779 5:1.524787 6:6.926487 7:2.746711 8:47 
-13249.07029975282 1:3.537233 2:3.626015 3:0.070769 4:3.884779 5:1.524787 6:6.926487 7:2.746711 8:49 
3645.701162861455 1:3.209699 2:3.644716 3:-0.032514 4:3.928134 5:1.335855 6:6.898385 7:2.675304 8:1 
2764.929874197878 1:3.209699 2:3.644716 3:-0.032514 4:3.928134 5:1.335855 6:6.898385 7:2.675304 8:3 
2957.061734497957 1:3.209699 2:3.644716 3:-0.032514 4:3.928134 5:1.335855 6:6.898385 7:2.675304 8:5 
-11531.32830059382 1:3.209699 2:3.644716 3:-0.032514 4:3.928134 5:1.335855 6:6.898385 7:2.675304 8:7 
-18844.5385932087 1:3.209699 2:3.644716 3:-0.032514 4:3.928134 5:1.335855 6:6.898385 7:2.675304 8:9 
-23038.59799616164 1:3.209699 2:3.644716 3:-0.032514 4:3.928134 5:1.335855 6:6.898385 7:2.675304 8:11 
-22928.059591571 1:3.209699 2:3.644716 3:-0.032514 4:3.928134 5:1.335855 6:6.898385 7:2.675304 8:13 
2484.895715677734 1:3.209699 2:3.644716 3:-0.032514 4:3.928134 5:1.335855 6:6.898385 7:2.675304 8:15 
208.5494309219906 1:3.209699 2:3.644716 3:-0.032514 4:3.928134 5:1.335855 6:6.898385 7:2.675304 8:17 
15480.56078695443 1:3.209699 2:3.644716 3:-0.032514 4:3.928134 5:1.335855 6:6.898385 7:2.675304 8:19 
24575.09442150013 1:3.209699 2:3.644716 3:-0.032514 4:3.928134 5:1.335855 6:6.898385 7:2.675304 8:21 
23783.09729730764 1:3.209699 2:3.644716 3:-0.032514 4:3.928134 5:1.335855 6:6.898385 7:2.675304 8:23 
19336.4770364086 1:3.209699 2:3.644716 3:-0.032514 4:3.928134 5:1.335855 6:6.898385 7:2.675304 8:25 
13061.95036413795 1:3.209699 2:3.644716 3:-0.032514 4:3.928134 5:1.335855 6:6.898385 7:2.675304 8:27 
-2511.264420687883 1:3.209699 2:3.644716 3:-0.032514 4:3.928134 5:1.335855 6:6.898385 7:2.675304 8:29 
-14012.25258612413 1:3.209699 2:3.644716 3:-0.032514 4:3.928134 5:1.335855 6:6.898385 7:2.675304 8:31 
-14686.67878978989 1:3.209699 2:3.644716 3:-0.032514 4:3.928134 5:1.335855 6:6.898385 7:2.675304 8:33 
-11273.07091855205 1:3.209699 2:3.644716 3:-0.032514 4:3.928134 5:1.335855 6:6.898385 7:2.675304 8:35 
-9033.438522123244 1:3.209699 2:3.644716 3:-0.032514 4:3.928134 5:1.335855 6:6.898385 7:2.675304 8:37 
-2875.186046509141 1:3.209699 2:3.644716 3:-0.032514 4:3.928134 5:1.335855 6:6.898385 7:2.675304 8:39 
4364.813216455615 1:3.209699 2:3.644716 3:-0.032514 4:3.928134 5:1.335855 6:6.898385 7:2.675304 8:43 
4843.127963651292 1:3.209699 2:3.644716 3:-0.032514 4:3.928134 5:1.335855 6:6.898385 7:2.675304 8:45 
5144.516982141514 1:3.209699 2:3.644716 3:-0.032514 4:3.928134 5:1.335855 6:6.898385 7:2.675304 8:47 
990.5667187392994 1:3.209699 2:3.644716 3:-0.032514 4:3.928134 5:1.335855 6:6.898385 7:2.675304 8:49 
-30000 1:3.31292 2:4.096102 3:-0.242839 4:3.945314 5:1.31443 6:6.924147 7:2.728411 8:5 
-30000 1:3.31292 2:4.096102 3:-0.242839 4:3.945314 5:1.31443 6:6.924147 7:2.728411 8:7 
-30000 1:3.31292 2:4.096102 3:-0.242839 4:3.945314 5:1.31443 6:6.924147 7:2.728411 8:9 
-30000 1:3.31292 2:4.096102 3:-0.242839 4:3.945314 5:1.31443 6:6.924147 7:2.728411 8:11 
-30000 1:3.31292 2:4.096102 3:-0.242839 4:3.945314 5:1.31443 6:6.924147 7:2.728411 8:13 
-30000 1:3.31292 2:4.096102 3:-0.242839 4:3.945314 5:1.31443 6:6.924147 7:2.728411 8:15 
-30000 1:3.31292 2:4.096102 3:-0.242839 4:3.945314 5:1.31443 6:6.924147 7:2.728411 8:17 
-21839.6358587723 1:3.31292 2:4.096102 3:-0.242839 4:3.945314 5:1.31443 6:6.924147 7:2.728411 8:19 
5390.323839386328 1:3.31292 2:4.096102 3:-0.242839 4:3.945314 5:1.31443 6:6.924147 7:2.728411 8:21 
15148.67164953225 1:3.31292 2:4.096102 3:-0.242839 4:3.945314 5:1.31443 6:6.924147 7:2.728411 8:23 
7755.576493101272 1:3.31292 2:4.096102 3:-0.242839 4:3.945314 5:1.31443 6:6.924147 7:2.728411 8:25 
-11589.32989832527 1:3.31292 2:4.096102 3:-0.242839 4:3.945314 5:1.31443 6:6.924147 7:2.728411 8:27 
-16230.95551554462 1:3.31292 2:4.096102 3:-0.242839 4:3.945314 5:1.31443 6:6.924147 7:2.728411 8:29 
-30000 1:3.31292 2:4.096102 3:-0.242839 4:3.945314 5:1.31443 6:6.924147 7:2.728411 8:31 
-30000 1:3.31292 2:4.096102 3:-0.242839 4:3.945314 5:1.31443 6:6.924147 7:2.728411 8:33 
-30000 1:3.31292 2:4.096102 3:-0.242839 4:3.945314 5:1.31443 6:6.924147 7:2.728411 8:35 
-30000 1:3.31292 2:4.096102 3:-0.242839 4:3.945314 5:1.31443 6:6.924147 7:2.728411 8:37 
-30000 1:3.31292 2:4.096102 3:-0.242839 4:3.945314 5:1.31443 6:6.924147 7:2.728411 8:39 
-30000 1:3.31292 2:4.096102 3:-0.242839 4:3.945314 5:1.31443 6:6.924147 7:2.728411 8:41 
-30000 1:3.31292 2:4.096102 3:-0.242839 4:3.945314 5:1.31443 6:6.924147 7:2.728411 8:43 
-30000 1:3.31292 2:4.096102 3:-0.242839 4:3.945314 5:1.31443 6:6.924147 7:2.728411 8:45 
-30000 1:3.31292 2:4.096102 3:-0.242839 4:3.945314 5:1.31443 6:6.924147 7:2.728411 8:47 
-30000 1:3.31292 2:4.096102 3:-0.242839 4:3.945314 5:1.31443 6:6.924147 7:2.728411 8:49 
-2013.668984176652 1:3.263535 2:4.125164 3:-0.052011 4:3.867018 5:1.186406 6:6.901379 7:2.793367 8:1 
-5685.615048771624 1:3.263535 2:4.125164 3:-0.052011 4:3.867018 5:1.186406 6:6.901379 7:2.793367 8:5 
-30000 1:3.263535 2:4.125164 3:-0.052011 4:3.867018 5:1.186406 6:6.901379 7:2.793367 8:7 
-30000 1:3.263535 2:4.125164 3:-0.052011 4:3.867018 5:1.186406 6:6.901379 7:2.793367 8:9 
-30000 1:3.263535 2:4.125164 3:-0.052011 4:3.867018 5:1.186406 6:6.901379 7:2.793367 8:11 
-30000 1:3.263535 2:4.125164 3:-0.052011 4:3.867018 5:1.186406 6:6.901379 7:2.793367 8:13 
15052.17342467496 1:3.263535 2:4.125164 3:-0.052011 4:3.867018 5:1.186406 6:6.901379 7:2.793367 8:15 
-30000 1:3.263535 2:4.125164 3:-0.052011 4:3.867018 5:1.186406 6:6.901379 7:2.793367 8:17 
28201.58665073612 1:3.263535 2:4.125164 3:-0.052011 4:3.867018 5:1.186406 6:6.901379 7:2.793367 8:21 
25078.59234859584 1:3.263535 2:4.125164 3:-0.052011 4:3.867018 5:1.186406 6:6.901379 7:2.793367 8:23 
30000 1:3.263535 2:4.125164 3:-0.052011 4:3.867018 5:1.186406 6:6.901379 7:2.793367 8:25 
